digraph Tree {
node [shape=box, style="filled", color="black", fontname="helvetica"] ;
edge [fontname="helvetica"] ;
0 [label="dollar <= 0.056\nentropy = 0.968\nsamples = 3680\nvalue = [2224, 1456]\nclass = 1", fillcolor="#f6d3bb"] ;
1 [label="bang <= 0.08\nentropy = 0.784\nsamples = 2768\nvalue = [2121, 647]\nclass = 1", fillcolor="#eda775"] ;
0 -> 1 [labeldistance=2.5, labelangle=45, headlabel="True"] ;
2 [label="crl.tot <= 29.5\nentropy = 0.466\nsamples = 1906\nvalue = [1717, 189]\nclass = 1", fillcolor="#e88f4f"] ;
1 -> 2 ;
3 [label="crl.tot <= 9.5\nentropy = 0.237\nsamples = 670\nvalue = [644, 26]\nclass = 1", fillcolor="#e68641"] ;
2 -> 3 ;
4 [label="money <= 11.125\nentropy = 0.133\nsamples = 323\nvalue = [317, 6]\nclass = 1", fillcolor="#e5833d"] ;
3 -> 4 ;
5 [label="crl.tot <= 2.5\nentropy = 0.116\nsamples = 322\nvalue = [317, 5]\nclass = 1", fillcolor="#e5833c"] ;
4 -> 5 ;
6 [label="crl.tot <= 1.5\nentropy = 0.371\nsamples = 14\nvalue = [13, 1]\nclass = 1", fillcolor="#e78b48"] ;
5 -> 6 ;
7 [label="entropy = 0.0\nsamples = 5\nvalue = [5, 0]\nclass = 1", fillcolor="#e58139"] ;
6 -> 7 ;
8 [label="entropy = 0.503\nsamples = 9\nvalue = [8, 1]\nclass = 1", fillcolor="#e89152"] ;
6 -> 8 ;
9 [label="crl.tot <= 3.5\nentropy = 0.1\nsamples = 308\nvalue = [304, 4]\nclass = 1", fillcolor="#e5833c"] ;
5 -> 9 ;
10 [label="entropy = 0.0\nsamples = 25\nvalue = [25, 0]\nclass = 1", fillcolor="#e58139"] ;
9 -> 10 ;
11 [label="crl.tot <= 4.5\nentropy = 0.107\nsamples = 283\nvalue = [279, 4]\nclass = 1", fillcolor="#e5833c"] ;
9 -> 11 ;
12 [label="entropy = 0.183\nsamples = 36\nvalue = [35, 1]\nclass = 1", fillcolor="#e6853f"] ;
11 -> 12 ;
13 [label="crl.tot <= 6.5\nentropy = 0.095\nsamples = 247\nvalue = [244, 3]\nclass = 1", fillcolor="#e5833b"] ;
11 -> 13 ;
14 [label="crl.tot <= 5.5\nentropy = 0.067\nsamples = 125\nvalue = [124, 1]\nclass = 1", fillcolor="#e5823b"] ;
13 -> 14 ;
15 [label="make <= 1.135\nentropy = 0.088\nsamples = 90\nvalue = [89, 1]\nclass = 1", fillcolor="#e5823b"] ;
14 -> 15 ;
16 [label="entropy = 0.089\nsamples = 89\nvalue = [88, 1]\nclass = 1", fillcolor="#e5823b"] ;
15 -> 16 ;
17 [label="entropy = 0.0\nsamples = 1\nvalue = [1, 0]\nclass = 1", fillcolor="#e58139"] ;
15 -> 17 ;
18 [label="entropy = 0.0\nsamples = 35\nvalue = [35, 0]\nclass = 1", fillcolor="#e58139"] ;
14 -> 18 ;
19 [label="crl.tot <= 7.5\nentropy = 0.121\nsamples = 122\nvalue = [120, 2]\nclass = 1", fillcolor="#e5833c"] ;
13 -> 19 ;
20 [label="money <= 4.875\nentropy = 0.172\nsamples = 39\nvalue = [38, 1]\nclass = 1", fillcolor="#e6843e"] ;
19 -> 20 ;
21 [label="entropy = 0.176\nsamples = 38\nvalue = [37, 1]\nclass = 1", fillcolor="#e6843e"] ;
20 -> 21 ;
22 [label="entropy = 0.0\nsamples = 1\nvalue = [1, 0]\nclass = 1", fillcolor="#e58139"] ;
20 -> 22 ;
23 [label="crl.tot <= 8.5\nentropy = 0.094\nsamples = 83\nvalue = [82, 1]\nclass = 1", fillcolor="#e5833b"] ;
19 -> 23 ;
24 [label="entropy = 0.0\nsamples = 32\nvalue = [32, 0]\nclass = 1", fillcolor="#e58139"] ;
23 -> 24 ;
25 [label="make <= 0.875\nentropy = 0.139\nsamples = 51\nvalue = [50, 1]\nclass = 1", fillcolor="#e6843d"] ;
23 -> 25 ;
26 [label="entropy = 0.141\nsamples = 50\nvalue = [49, 1]\nclass = 1", fillcolor="#e6843d"] ;
25 -> 26 ;
27 [label="entropy = 0.0\nsamples = 1\nvalue = [1, 0]\nclass = 1", fillcolor="#e58139"] ;
25 -> 27 ;
28 [label="entropy = 0.0\nsamples = 1\nvalue = [0, 1]\nclass = 1", fillcolor="#399de5"] ;
4 -> 28 ;
29 [label="crl.tot <= 28.5\nentropy = 0.318\nsamples = 347\nvalue = [327, 20]\nclass = 1", fillcolor="#e78945"] ;
3 -> 29 ;
30 [label="make <= 0.21\nentropy = 0.328\nsamples = 333\nvalue = [313, 20]\nclass = 1", fillcolor="#e78946"] ;
29 -> 30 ;
31 [label="money <= 0.735\nentropy = 0.337\nsamples = 321\nvalue = [301, 20]\nclass = 1", fillcolor="#e78946"] ;
30 -> 31 ;
32 [label="crl.tot <= 15.5\nentropy = 0.327\nsamples = 317\nvalue = [298, 19]\nclass = 1", fillcolor="#e78946"] ;
31 -> 32 ;
33 [label="crl.tot <= 13.5\nentropy = 0.27\nsamples = 130\nvalue = [124, 6]\nclass = 1", fillcolor="#e68743"] ;
32 -> 33 ;
34 [label="crl.tot <= 10.5\nentropy = 0.348\nsamples = 92\nvalue = [86, 6]\nclass = 1", fillcolor="#e78a47"] ;
33 -> 34 ;
35 [label="entropy = 0.267\nsamples = 22\nvalue = [21, 1]\nclass = 1", fillcolor="#e68742"] ;
34 -> 35 ;
36 [label="n000 <= 1.06\nentropy = 0.371\nsamples = 70\nvalue = [65, 5]\nclass = 1", fillcolor="#e78b48"] ;
34 -> 36 ;
37 [label="crl.tot <= 12.5\nentropy = 0.375\nsamples = 69\nvalue = [64, 5]\nclass = 1", fillcolor="#e78b48"] ;
36 -> 37 ;
38 [label="crl.tot <= 11.5\nentropy = 0.348\nsamples = 46\nvalue = [43, 3]\nclass = 1", fillcolor="#e78a47"] ;
37 -> 38 ;
39 [label="entropy = 0.391\nsamples = 26\nvalue = [24, 2]\nclass = 1", fillcolor="#e78c49"] ;
38 -> 39 ;
40 [label="entropy = 0.286\nsamples = 20\nvalue = [19, 1]\nclass = 1", fillcolor="#e68843"] ;
38 -> 40 ;
41 [label="entropy = 0.426\nsamples = 23\nvalue = [21, 2]\nclass = 1", fillcolor="#e78d4c"] ;
37 -> 41 ;
42 [label="entropy = 0.0\nsamples = 1\nvalue = [1, 0]\nclass = 1", fillcolor="#e58139"] ;
36 -> 42 ;
43 [label="entropy = 0.0\nsamples = 38\nvalue = [38, 0]\nclass = 1", fillcolor="#e58139"] ;
33 -> 43 ;
44 [label="crl.tot <= 21.5\nentropy = 0.364\nsamples = 187\nvalue = [174, 13]\nclass = 1", fillcolor="#e78a48"] ;
32 -> 44 ;
45 [label="crl.tot <= 18.5\nentropy = 0.431\nsamples = 102\nvalue = [93, 9]\nclass = 1", fillcolor="#e88d4c"] ;
44 -> 45 ;
46 [label="crl.tot <= 17.5\nentropy = 0.371\nsamples = 56\nvalue = [52, 4]\nclass = 1", fillcolor="#e78b48"] ;
45 -> 46 ;
47 [label="crl.tot <= 16.5\nentropy = 0.446\nsamples = 43\nvalue = [39, 4]\nclass = 1", fillcolor="#e88e4d"] ;
46 -> 47 ;
48 [label="entropy = 0.469\nsamples = 20\nvalue = [18, 2]\nclass = 1", fillcolor="#e88f4f"] ;
47 -> 48 ;
49 [label="entropy = 0.426\nsamples = 23\nvalue = [21, 2]\nclass = 1", fillcolor="#e78d4c"] ;
47 -> 49 ;
50 [label="entropy = 0.0\nsamples = 13\nvalue = [13, 0]\nclass = 1", fillcolor="#e58139"] ;
46 -> 50 ;
51 [label="crl.tot <= 19.5\nentropy = 0.496\nsamples = 46\nvalue = [41, 5]\nclass = 1", fillcolor="#e89051"] ;
45 -> 51 ;
52 [label="entropy = 0.672\nsamples = 17\nvalue = [14, 3]\nclass = 1", fillcolor="#eb9c63"] ;
51 -> 52 ;
53 [label="crl.tot <= 20.5\nentropy = 0.362\nsamples = 29\nvalue = [27, 2]\nclass = 1", fillcolor="#e78a48"] ;
51 -> 53 ;
54 [label="entropy = 0.31\nsamples = 18\nvalue = [17, 1]\nclass = 1", fillcolor="#e78845"] ;
53 -> 54 ;
55 [label="entropy = 0.439\nsamples = 11\nvalue = [10, 1]\nclass = 1", fillcolor="#e88e4d"] ;
53 -> 55 ;
56 [label="crl.tot <= 23.5\nentropy = 0.274\nsamples = 85\nvalue = [81, 4]\nclass = 1", fillcolor="#e68743"] ;
44 -> 56 ;
57 [label="entropy = 0.0\nsamples = 18\nvalue = [18, 0]\nclass = 1", fillcolor="#e58139"] ;
56 -> 57 ;
58 [label="crl.tot <= 26.5\nentropy = 0.326\nsamples = 67\nvalue = [63, 4]\nclass = 1", fillcolor="#e78946"] ;
56 -> 58 ;
59 [label="crl.tot <= 24.5\nentropy = 0.25\nsamples = 48\nvalue = [46, 2]\nclass = 1", fillcolor="#e68642"] ;
58 -> 59 ;
60 [label="entropy = 0.323\nsamples = 17\nvalue = [16, 1]\nclass = 1", fillcolor="#e78945"] ;
59 -> 60 ;
61 [label="crl.tot <= 25.5\nentropy = 0.206\nsamples = 31\nvalue = [30, 1]\nclass = 1", fillcolor="#e68540"] ;
59 -> 61 ;
62 [label="entropy = 0.0\nsamples = 13\nvalue = [13, 0]\nclass = 1", fillcolor="#e58139"] ;
61 -> 62 ;
63 [label="entropy = 0.31\nsamples = 18\nvalue = [17, 1]\nclass = 1", fillcolor="#e78845"] ;
61 -> 63 ;
64 [label="crl.tot <= 27.5\nentropy = 0.485\nsamples = 19\nvalue = [17, 2]\nclass = 1", fillcolor="#e89050"] ;
58 -> 64 ;
65 [label="entropy = 0.503\nsamples = 9\nvalue = [8, 1]\nclass = 1", fillcolor="#e89152"] ;
64 -> 65 ;
66 [label="entropy = 0.469\nsamples = 10\nvalue = [9, 1]\nclass = 1", fillcolor="#e88f4f"] ;
64 -> 66 ;
67 [label="money <= 1.535\nentropy = 0.811\nsamples = 4\nvalue = [3, 1]\nclass = 1", fillcolor="#eeab7b"] ;
31 -> 67 ;
68 [label="entropy = 0.0\nsamples = 1\nvalue = [0, 1]\nclass = 1", fillcolor="#399de5"] ;
67 -> 68 ;
69 [label="entropy = 0.0\nsamples = 3\nvalue = [3, 0]\nclass = 1", fillcolor="#e58139"] ;
67 -> 69 ;
70 [label="entropy = 0.0\nsamples = 12\nvalue = [12, 0]\nclass = 1", fillcolor="#e58139"] ;
30 -> 70 ;
71 [label="entropy = 0.0\nsamples = 14\nvalue = [14, 0]\nclass = 1", fillcolor="#e58139"] ;
29 -> 71 ;
72 [label="money <= 0.01\nentropy = 0.563\nsamples = 1236\nvalue = [1073, 163]\nclass = 1", fillcolor="#e99457"] ;
2 -> 72 ;
73 [label="n000 <= 0.115\nentropy = 0.534\nsamples = 1201\nvalue = [1055, 146]\nclass = 1", fillcolor="#e99254"] ;
72 -> 73 ;
74 [label="make <= 0.005\nentropy = 0.512\nsamples = 1174\nvalue = [1040, 134]\nclass = 1", fillcolor="#e89153"] ;
73 -> 74 ;
75 [label="crl.tot <= 98.5\nentropy = 0.557\nsamples = 947\nvalue = [824, 123]\nclass = 1", fillcolor="#e99457"] ;
74 -> 75 ;
76 [label="bang <= 0.076\nentropy = 0.474\nsamples = 473\nvalue = [425, 48]\nclass = 1", fillcolor="#e88f4f"] ;
75 -> 76 ;
77 [label="crl.tot <= 62.5\nentropy = 0.468\nsamples = 472\nvalue = [425, 47]\nclass = 1", fillcolor="#e88f4f"] ;
76 -> 77 ;
78 [label="crl.tot <= 61.5\nentropy = 0.522\nsamples = 298\nvalue = [263, 35]\nclass = 1", fillcolor="#e89253"] ;
77 -> 78 ;
79 [label="crl.tot <= 38.5\nentropy = 0.498\nsamples = 293\nvalue = [261, 32]\nclass = 1", fillcolor="#e89051"] ;
78 -> 79 ;
80 [label="crl.tot <= 37.5\nentropy = 0.581\nsamples = 108\nvalue = [93, 15]\nclass = 1", fillcolor="#e99559"] ;
79 -> 80 ;
81 [label="crl.tot <= 36.5\nentropy = 0.521\nsamples = 94\nvalue = [83, 11]\nclass = 1", fillcolor="#e89253"] ;
80 -> 81 ;
82 [label="entropy = 0.573\nsamples = 81\nvalue = [70, 11]\nclass = 1", fillcolor="#e99558"] ;
81 -> 82 ;
83 [label="entropy = 0.0\nsamples = 13\nvalue = [13, 0]\nclass = 1", fillcolor="#e58139"] ;
81 -> 83 ;
84 [label="entropy = 0.863\nsamples = 14\nvalue = [10, 4]\nclass = 1", fillcolor="#efb388"] ;
80 -> 84 ;
85 [label="crl.tot <= 41.5\nentropy = 0.443\nsamples = 185\nvalue = [168, 17]\nclass = 1", fillcolor="#e88e4d"] ;
79 -> 85 ;
86 [label="entropy = 0.0\nsamples = 34\nvalue = [34, 0]\nclass = 1", fillcolor="#e58139"] ;
85 -> 86 ;
87 [label="crl.tot <= 42.5\nentropy = 0.508\nsamples = 151\nvalue = [134, 17]\nclass = 1", fillcolor="#e89152"] ;
85 -> 87 ;
88 [label="entropy = 0.764\nsamples = 9\nvalue = [7, 2]\nclass = 1", fillcolor="#eca572"] ;
87 -> 88 ;
89 [label="entropy = 0.487\nsamples = 142\nvalue = [127, 15]\nclass = 1", fillcolor="#e89050"] ;
87 -> 89 ;
90 [label="entropy = 0.971\nsamples = 5\nvalue = [2, 3]\nclass = 1", fillcolor="#bddef6"] ;
78 -> 90 ;
91 [label="crl.tot <= 73.5\nentropy = 0.362\nsamples = 174\nvalue = [162, 12]\nclass = 1", fillcolor="#e78a48"] ;
77 -> 91 ;
92 [label="crl.tot <= 69.5\nentropy = 0.194\nsamples = 67\nvalue = [65, 2]\nclass = 1", fillcolor="#e6853f"] ;
91 -> 92 ;
93 [label="crl.tot <= 65.5\nentropy = 0.258\nsamples = 46\nvalue = [44, 2]\nclass = 1", fillcolor="#e68742"] ;
92 -> 93 ;
94 [label="entropy = 0.0\nsamples = 19\nvalue = [19, 0]\nclass = 1", fillcolor="#e58139"] ;
93 -> 94 ;
95 [label="crl.tot <= 66.5\nentropy = 0.381\nsamples = 27\nvalue = [25, 2]\nclass = 1", fillcolor="#e78b49"] ;
93 -> 95 ;
96 [label="entropy = 0.918\nsamples = 3\nvalue = [2, 1]\nclass = 1", fillcolor="#f2c09c"] ;
95 -> 96 ;
97 [label="entropy = 0.25\nsamples = 24\nvalue = [23, 1]\nclass = 1", fillcolor="#e68642"] ;
95 -> 97 ;
98 [label="entropy = 0.0\nsamples = 21\nvalue = [21, 0]\nclass = 1", fillcolor="#e58139"] ;
92 -> 98 ;
99 [label="crl.tot <= 87.5\nentropy = 0.448\nsamples = 107\nvalue = [97, 10]\nclass = 1", fillcolor="#e88e4d"] ;
91 -> 99 ;
100 [label="crl.tot <= 85.5\nentropy = 0.592\nsamples = 56\nvalue = [48, 8]\nclass = 1", fillcolor="#e9965a"] ;
99 -> 100 ;
101 [label="crl.tot <= 84.5\nentropy = 0.529\nsamples = 50\nvalue = [44, 6]\nclass = 1", fillcolor="#e99254"] ;
100 -> 101 ;
102 [label="entropy = 0.559\nsamples = 46\nvalue = [40, 6]\nclass = 1", fillcolor="#e99457"] ;
101 -> 102 ;
103 [label="entropy = 0.0\nsamples = 4\nvalue = [4, 0]\nclass = 1", fillcolor="#e58139"] ;
101 -> 103 ;
104 [label="crl.tot <= 86.5\nentropy = 0.918\nsamples = 6\nvalue = [4, 2]\nclass = 1", fillcolor="#f2c09c"] ;
100 -> 104 ;
105 [label="entropy = 0.811\nsamples = 4\nvalue = [3, 1]\nclass = 1", fillcolor="#eeab7b"] ;
104 -> 105 ;
106 [label="entropy = 1.0\nsamples = 2\nvalue = [1, 1]\nclass = 1", fillcolor="#ffffff"] ;
104 -> 106 ;
107 [label="dollar <= 0.043\nentropy = 0.239\nsamples = 51\nvalue = [49, 2]\nclass = 1", fillcolor="#e68641"] ;
99 -> 107 ;
108 [label="crl.tot <= 94.5\nentropy = 0.144\nsamples = 49\nvalue = [48, 1]\nclass = 1", fillcolor="#e6843d"] ;
107 -> 108 ;
109 [label="entropy = 0.0\nsamples = 31\nvalue = [31, 0]\nclass = 1", fillcolor="#e58139"] ;
108 -> 109 ;
110 [label="entropy = 0.31\nsamples = 18\nvalue = [17, 1]\nclass = 1", fillcolor="#e78845"] ;
108 -> 110 ;
111 [label="crl.tot <= 96.5\nentropy = 1.0\nsamples = 2\nvalue = [1, 1]\nclass = 1", fillcolor="#ffffff"] ;
107 -> 111 ;
112 [label="entropy = 0.0\nsamples = 1\nvalue = [0, 1]\nclass = 1", fillcolor="#399de5"] ;
111 -> 112 ;
113 [label="entropy = 0.0\nsamples = 1\nvalue = [1, 0]\nclass = 1", fillcolor="#e58139"] ;
111 -> 113 ;
114 [label="entropy = 0.0\nsamples = 1\nvalue = [0, 1]\nclass = 1", fillcolor="#399de5"] ;
76 -> 114 ;
115 [label="crl.tot <= 145.5\nentropy = 0.63\nsamples = 474\nvalue = [399, 75]\nclass = 1", fillcolor="#ea995e"] ;
75 -> 115 ;
116 [label="crl.tot <= 143.5\nentropy = 0.732\nsamples = 156\nvalue = [124, 32]\nclass = 1", fillcolor="#eca26c"] ;
115 -> 116 ;
117 [label="crl.tot <= 139.5\nentropy = 0.685\nsamples = 148\nvalue = [121, 27]\nclass = 1", fillcolor="#eb9d65"] ;
116 -> 117 ;
118 [label="bang <= 0.047\nentropy = 0.716\nsamples = 137\nvalue = [110, 27]\nclass = 1", fillcolor="#eba06a"] ;
117 -> 118 ;
119 [label="bang <= 0.046\nentropy = 0.737\nsamples = 130\nvalue = [103, 27]\nclass = 1", fillcolor="#eca26d"] ;
118 -> 119 ;
120 [label="bang <= 0.02\nentropy = 0.725\nsamples = 129\nvalue = [103, 26]\nclass = 1", fillcolor="#eca16b"] ;
119 -> 120 ;
121 [label="entropy = 0.734\nsamples = 126\nvalue = [100, 26]\nclass = 1", fillcolor="#eca26c"] ;
120 -> 121 ;
122 [label="entropy = 0.0\nsamples = 3\nvalue = [3, 0]\nclass = 1", fillcolor="#e58139"] ;
120 -> 122 ;
123 [label="entropy = 0.0\nsamples = 1\nvalue = [0, 1]\nclass = 1", fillcolor="#399de5"] ;
119 -> 123 ;
124 [label="entropy = 0.0\nsamples = 7\nvalue = [7, 0]\nclass = 1", fillcolor="#e58139"] ;
118 -> 124 ;
125 [label="entropy = 0.0\nsamples = 11\nvalue = [11, 0]\nclass = 1", fillcolor="#e58139"] ;
117 -> 125 ;
126 [label="crl.tot <= 144.5\nentropy = 0.954\nsamples = 8\nvalue = [3, 5]\nclass = 1", fillcolor="#b0d8f5"] ;
116 -> 126 ;
127 [label="entropy = 0.0\nsamples = 3\nvalue = [0, 3]\nclass = 1", fillcolor="#399de5"] ;
126 -> 127 ;
128 [label="bang <= 0.049\nentropy = 0.971\nsamples = 5\nvalue = [3, 2]\nclass = 1", fillcolor="#f6d5bd"] ;
126 -> 128 ;
129 [label="bang <= 0.022\nentropy = 1.0\nsamples = 4\nvalue = [2, 2]\nclass = 1", fillcolor="#ffffff"] ;
128 -> 129 ;
130 [label="entropy = 0.918\nsamples = 3\nvalue = [2, 1]\nclass = 1", fillcolor="#f2c09c"] ;
129 -> 130 ;
131 [label="entropy = 0.0\nsamples = 1\nvalue = [0, 1]\nclass = 1", fillcolor="#399de5"] ;
129 -> 131 ;
132 [label="entropy = 0.0\nsamples = 1\nvalue = [1, 0]\nclass = 1", fillcolor="#e58139"] ;
128 -> 132 ;
133 [label="crl.tot <= 149.5\nentropy = 0.572\nsamples = 318\nvalue = [275, 43]\nclass = 1", fillcolor="#e99558"] ;
115 -> 133 ;
134 [label="entropy = 0.0\nsamples = 11\nvalue = [11, 0]\nclass = 1", fillcolor="#e58139"] ;
133 -> 134 ;
135 [label="dollar <= 0.028\nentropy = 0.584\nsamples = 307\nvalue = [264, 43]\nclass = 1", fillcolor="#e99659"] ;
133 -> 135 ;
136 [label="bang <= 0.03\nentropy = 0.556\nsamples = 286\nvalue = [249, 37]\nclass = 1", fillcolor="#e99456"] ;
135 -> 136 ;
137 [label="bang <= 0.017\nentropy = 0.51\nsamples = 238\nvalue = [211, 27]\nclass = 1", fillcolor="#e89152"] ;
136 -> 137 ;
138 [label="bang <= 0.015\nentropy = 0.529\nsamples = 225\nvalue = [198, 27]\nclass = 1", fillcolor="#e99254"] ;
137 -> 138 ;
139 [label="entropy = 0.508\nsamples = 222\nvalue = [197, 25]\nclass = 1", fillcolor="#e89152"] ;
138 -> 139 ;
140 [label="entropy = 0.918\nsamples = 3\nvalue = [1, 2]\nclass = 1", fillcolor="#9ccef2"] ;
138 -> 140 ;
141 [label="entropy = 0.0\nsamples = 13\nvalue = [13, 0]\nclass = 1", fillcolor="#e58139"] ;
137 -> 141 ;
142 [label="bang <= 0.038\nentropy = 0.738\nsamples = 48\nvalue = [38, 10]\nclass = 1", fillcolor="#eca26d"] ;
136 -> 142 ;
143 [label="entropy = 0.0\nsamples = 6\nvalue = [0, 6]\nclass = 1", fillcolor="#399de5"] ;
142 -> 143 ;
144 [label="crl.tot <= 427.0\nentropy = 0.454\nsamples = 42\nvalue = [38, 4]\nclass = 1", fillcolor="#e88e4e"] ;
142 -> 144 ;
145 [label="entropy = 0.191\nsamples = 34\nvalue = [33, 1]\nclass = 1", fillcolor="#e6853f"] ;
144 -> 145 ;
146 [label="entropy = 0.954\nsamples = 8\nvalue = [5, 3]\nclass = 1", fillcolor="#f5cdb0"] ;
144 -> 146 ;
147 [label="dollar <= 0.03\nentropy = 0.863\nsamples = 21\nvalue = [15, 6]\nclass = 1", fillcolor="#efb388"] ;
135 -> 147 ;
148 [label="entropy = 0.0\nsamples = 1\nvalue = [0, 1]\nclass = 1", fillcolor="#399de5"] ;
147 -> 148 ;
149 [label="crl.tot <= 1066.5\nentropy = 0.811\nsamples = 20\nvalue = [15, 5]\nclass = 1", fillcolor="#eeab7b"] ;
147 -> 149 ;
150 [label="crl.tot <= 893.0\nentropy = 0.874\nsamples = 17\nvalue = [12, 5]\nclass = 1", fillcolor="#f0b58b"] ;
149 -> 150 ;
151 [label="entropy = 0.811\nsamples = 16\nvalue = [12, 4]\nclass = 1", fillcolor="#eeab7b"] ;
150 -> 151 ;
152 [label="entropy = 0.0\nsamples = 1\nvalue = [0, 1]\nclass = 1", fillcolor="#399de5"] ;
150 -> 152 ;
153 [label="entropy = 0.0\nsamples = 3\nvalue = [3, 0]\nclass = 1", fillcolor="#e58139"] ;
149 -> 153 ;
154 [label="crl.tot <= 261.0\nentropy = 0.28\nsamples = 227\nvalue = [216, 11]\nclass = 1", fillcolor="#e68743"] ;
74 -> 154 ;
155 [label="crl.tot <= 252.0\nentropy = 0.423\nsamples = 128\nvalue = [117, 11]\nclass = 1", fillcolor="#e78d4c"] ;
154 -> 155 ;
156 [label="bang <= 0.045\nentropy = 0.343\nsamples = 125\nvalue = [117, 8]\nclass = 1", fillcolor="#e78a47"] ;
155 -> 156 ;
157 [label="dollar <= 0.043\nentropy = 0.224\nsamples = 111\nvalue = [107, 4]\nclass = 1", fillcolor="#e68640"] ;
156 -> 157 ;
158 [label="crl.tot <= 112.5\nentropy = 0.181\nsamples = 110\nvalue = [107, 3]\nclass = 1", fillcolor="#e6853f"] ;
157 -> 158 ;
159 [label="entropy = 0.0\nsamples = 69\nvalue = [69, 0]\nclass = 1", fillcolor="#e58139"] ;
158 -> 159 ;
160 [label="crl.tot <= 188.0\nentropy = 0.378\nsamples = 41\nvalue = [38, 3]\nclass = 1", fillcolor="#e78b49"] ;
158 -> 160 ;
161 [label="crl.tot <= 184.0\nentropy = 0.544\nsamples = 24\nvalue = [21, 3]\nclass = 1", fillcolor="#e99355"] ;
160 -> 161 ;
162 [label="entropy = 0.426\nsamples = 23\nvalue = [21, 2]\nclass = 1", fillcolor="#e78d4c"] ;
161 -> 162 ;
163 [label="entropy = 0.0\nsamples = 1\nvalue = [0, 1]\nclass = 1", fillcolor="#399de5"] ;
161 -> 163 ;
164 [label="entropy = 0.0\nsamples = 17\nvalue = [17, 0]\nclass = 1", fillcolor="#e58139"] ;
160 -> 164 ;
165 [label="entropy = 0.0\nsamples = 1\nvalue = [0, 1]\nclass = 1", fillcolor="#399de5"] ;
157 -> 165 ;
166 [label="bang <= 0.046\nentropy = 0.863\nsamples = 14\nvalue = [10, 4]\nclass = 1", fillcolor="#efb388"] ;
156 -> 166 ;
167 [label="entropy = 0.0\nsamples = 1\nvalue = [0, 1]\nclass = 1", fillcolor="#399de5"] ;
166 -> 167 ;
168 [label="bang <= 0.057\nentropy = 0.779\nsamples = 13\nvalue = [10, 3]\nclass = 1", fillcolor="#eda774"] ;
166 -> 168 ;
169 [label="entropy = 0.0\nsamples = 5\nvalue = [5, 0]\nclass = 1", fillcolor="#e58139"] ;
168 -> 169 ;
170 [label="crl.tot <= 113.0\nentropy = 0.954\nsamples = 8\nvalue = [5, 3]\nclass = 1", fillcolor="#f5cdb0"] ;
168 -> 170 ;
171 [label="crl.tot <= 88.5\nentropy = 1.0\nsamples = 6\nvalue = [3, 3]\nclass = 1", fillcolor="#ffffff"] ;
170 -> 171 ;
172 [label="entropy = 0.811\nsamples = 4\nvalue = [3, 1]\nclass = 1", fillcolor="#eeab7b"] ;
171 -> 172 ;
173 [label="entropy = 0.0\nsamples = 2\nvalue = [0, 2]\nclass = 1", fillcolor="#399de5"] ;
171 -> 173 ;
174 [label="entropy = 0.0\nsamples = 2\nvalue = [2, 0]\nclass = 1", fillcolor="#e58139"] ;
170 -> 174 ;
175 [label="entropy = 0.0\nsamples = 3\nvalue = [0, 3]\nclass = 1", fillcolor="#399de5"] ;
155 -> 175 ;
176 [label="entropy = 0.0\nsamples = 99\nvalue = [99, 0]\nclass = 1", fillcolor="#e58139"] ;
154 -> 176 ;
177 [label="crl.tot <= 365.0\nentropy = 0.991\nsamples = 27\nvalue = [15, 12]\nclass = 1", fillcolor="#fae6d7"] ;
73 -> 177 ;
178 [label="n000 <= 0.615\nentropy = 0.896\nsamples = 16\nvalue = [5, 11]\nclass = 1", fillcolor="#93caf1"] ;
177 -> 178 ;
179 [label="crl.tot <= 205.5\nentropy = 0.619\nsamples = 13\nvalue = [2, 11]\nclass = 1", fillcolor="#5dafea"] ;
178 -> 179 ;
180 [label="entropy = 0.0\nsamples = 9\nvalue = [0, 9]\nclass = 1", fillcolor="#399de5"] ;
179 -> 180 ;
181 [label="dollar <= 0.011\nentropy = 1.0\nsamples = 4\nvalue = [2, 2]\nclass = 1", fillcolor="#ffffff"] ;
179 -> 181 ;
182 [label="entropy = 0.0\nsamples = 2\nvalue = [2, 0]\nclass = 1", fillcolor="#e58139"] ;
181 -> 182 ;
183 [label="entropy = 0.0\nsamples = 2\nvalue = [0, 2]\nclass = 1", fillcolor="#399de5"] ;
181 -> 183 ;
184 [label="entropy = 0.0\nsamples = 3\nvalue = [3, 0]\nclass = 1", fillcolor="#e58139"] ;
178 -> 184 ;
185 [label="crl.tot <= 2029.0\nentropy = 0.439\nsamples = 11\nvalue = [10, 1]\nclass = 1", fillcolor="#e88e4d"] ;
177 -> 185 ;
186 [label="entropy = 0.0\nsamples = 10\nvalue = [10, 0]\nclass = 1", fillcolor="#e58139"] ;
185 -> 186 ;
187 [label="entropy = 0.0\nsamples = 1\nvalue = [0, 1]\nclass = 1", fillcolor="#399de5"] ;
185 -> 187 ;
188 [label="money <= 1.77\nentropy = 0.999\nsamples = 35\nvalue = [18, 17]\nclass = 1", fillcolor="#fef8f4"] ;
72 -> 188 ;
189 [label="n000 <= 0.305\nentropy = 0.981\nsamples = 31\nvalue = [18, 13]\nclass = 1", fillcolor="#f8dcc8"] ;
188 -> 189 ;
190 [label="crl.tot <= 6128.0\nentropy = 0.94\nsamples = 28\nvalue = [18, 10]\nclass = 1", fillcolor="#f3c7a7"] ;
189 -> 190 ;
191 [label="money <= 0.065\nentropy = 0.89\nsamples = 26\nvalue = [18, 8]\nclass = 1", fillcolor="#f1b991"] ;
190 -> 191 ;
192 [label="entropy = 0.0\nsamples = 4\nvalue = [4, 0]\nclass = 1", fillcolor="#e58139"] ;
191 -> 192 ;
193 [label="bang <= 0.017\nentropy = 0.946\nsamples = 22\nvalue = [14, 8]\nclass = 1", fillcolor="#f4c9aa"] ;
191 -> 193 ;
194 [label="dollar <= 0.02\nentropy = 0.75\nsamples = 14\nvalue = [11, 3]\nclass = 1", fillcolor="#eca36f"] ;
193 -> 194 ;
195 [label="crl.tot <= 933.0\nentropy = 0.619\nsamples = 13\nvalue = [11, 2]\nclass = 1", fillcolor="#ea985d"] ;
194 -> 195 ;
196 [label="money <= 1.365\nentropy = 0.439\nsamples = 11\nvalue = [10, 1]\nclass = 1", fillcolor="#e88e4d"] ;
195 -> 196 ;
197 [label="entropy = 0.0\nsamples = 9\nvalue = [9, 0]\nclass = 1", fillcolor="#e58139"] ;
196 -> 197 ;
198 [label="money <= 1.54\nentropy = 1.0\nsamples = 2\nvalue = [1, 1]\nclass = 1", fillcolor="#ffffff"] ;
196 -> 198 ;
199 [label="entropy = 0.0\nsamples = 1\nvalue = [0, 1]\nclass = 1", fillcolor="#399de5"] ;
198 -> 199 ;
200 [label="entropy = 0.0\nsamples = 1\nvalue = [1, 0]\nclass = 1", fillcolor="#e58139"] ;
198 -> 200 ;
201 [label="money <= 0.13\nentropy = 1.0\nsamples = 2\nvalue = [1, 1]\nclass = 1", fillcolor="#ffffff"] ;
195 -> 201 ;
202 [label="entropy = 0.0\nsamples = 1\nvalue = [1, 0]\nclass = 1", fillcolor="#e58139"] ;
201 -> 202 ;
203 [label="entropy = 0.0\nsamples = 1\nvalue = [0, 1]\nclass = 1", fillcolor="#399de5"] ;
201 -> 203 ;
204 [label="entropy = 0.0\nsamples = 1\nvalue = [0, 1]\nclass = 1", fillcolor="#399de5"] ;
194 -> 204 ;
205 [label="money <= 0.56\nentropy = 0.954\nsamples = 8\nvalue = [3, 5]\nclass = 1", fillcolor="#b0d8f5"] ;
193 -> 205 ;
206 [label="crl.tot <= 99.5\nentropy = 1.0\nsamples = 6\nvalue = [3, 3]\nclass = 1", fillcolor="#ffffff"] ;
205 -> 206 ;
207 [label="entropy = 0.0\nsamples = 1\nvalue = [0, 1]\nclass = 1", fillcolor="#399de5"] ;
206 -> 207 ;
208 [label="make <= 0.05\nentropy = 0.971\nsamples = 5\nvalue = [3, 2]\nclass = 1", fillcolor="#f6d5bd"] ;
206 -> 208 ;
209 [label="crl.tot <= 243.5\nentropy = 0.918\nsamples = 3\nvalue = [1, 2]\nclass = 1", fillcolor="#9ccef2"] ;
208 -> 209 ;
210 [label="entropy = 0.0\nsamples = 1\nvalue = [1, 0]\nclass = 1", fillcolor="#e58139"] ;
209 -> 210 ;
211 [label="entropy = 0.0\nsamples = 2\nvalue = [0, 2]\nclass = 1", fillcolor="#399de5"] ;
209 -> 211 ;
212 [label="entropy = 0.0\nsamples = 2\nvalue = [2, 0]\nclass = 1", fillcolor="#e58139"] ;
208 -> 212 ;
213 [label="entropy = 0.0\nsamples = 2\nvalue = [0, 2]\nclass = 1", fillcolor="#399de5"] ;
205 -> 213 ;
214 [label="entropy = 0.0\nsamples = 2\nvalue = [0, 2]\nclass = 1", fillcolor="#399de5"] ;
190 -> 214 ;
215 [label="entropy = 0.0\nsamples = 3\nvalue = [0, 3]\nclass = 1", fillcolor="#399de5"] ;
189 -> 215 ;
216 [label="entropy = 0.0\nsamples = 4\nvalue = [0, 4]\nclass = 1", fillcolor="#399de5"] ;
188 -> 216 ;
217 [label="crl.tot <= 85.5\nentropy = 0.997\nsamples = 862\nvalue = [404, 458]\nclass = 1", fillcolor="#e8f3fc"] ;
1 -> 217 ;
218 [label="bang <= 0.805\nentropy = 0.911\nsamples = 438\nvalue = [295, 143]\nclass = 1", fillcolor="#f2be99"] ;
217 -> 218 ;
219 [label="crl.tot <= 41.5\nentropy = 0.819\nsamples = 349\nvalue = [260, 89]\nclass = 1", fillcolor="#eeac7d"] ;
218 -> 219 ;
220 [label="money <= 3.91\nentropy = 0.621\nsamples = 162\nvalue = [137, 25]\nclass = 1", fillcolor="#ea985d"] ;
219 -> 220 ;
221 [label="crl.tot <= 12.5\nentropy = 0.594\nsamples = 160\nvalue = [137, 23]\nclass = 1", fillcolor="#e9965a"] ;
220 -> 221 ;
222 [label="entropy = 0.0\nsamples = 13\nvalue = [13, 0]\nclass = 1", fillcolor="#e58139"] ;
221 -> 222 ;
223 [label="crl.tot <= 35.5\nentropy = 0.626\nsamples = 147\nvalue = [124, 23]\nclass = 1", fillcolor="#ea985e"] ;
221 -> 223 ;
224 [label="bang <= 0.614\nentropy = 0.687\nsamples = 120\nvalue = [98, 22]\nclass = 1", fillcolor="#eb9d65"] ;
223 -> 224 ;
225 [label="crl.tot <= 26.5\nentropy = 0.611\nsamples = 93\nvalue = [79, 14]\nclass = 1", fillcolor="#ea975c"] ;
224 -> 225 ;
226 [label="crl.tot <= 15.5\nentropy = 0.752\nsamples = 51\nvalue = [40, 11]\nclass = 1", fillcolor="#eca46f"] ;
225 -> 226 ;
227 [label="entropy = 0.0\nsamples = 10\nvalue = [10, 0]\nclass = 1", fillcolor="#e58139"] ;
226 -> 227 ;
228 [label="bang <= 0.549\nentropy = 0.839\nsamples = 41\nvalue = [30, 11]\nclass = 1", fillcolor="#efaf82"] ;
226 -> 228 ;
229 [label="bang <= 0.225\nentropy = 0.878\nsamples = 37\nvalue = [26, 11]\nclass = 1", fillcolor="#f0b68d"] ;
228 -> 229 ;
230 [label="entropy = 0.592\nsamples = 14\nvalue = [12, 2]\nclass = 1", fillcolor="#e9965a"] ;
229 -> 230 ;
231 [label="entropy = 0.966\nsamples = 23\nvalue = [14, 9]\nclass = 1", fillcolor="#f6d2b8"] ;
229 -> 231 ;
232 [label="entropy = 0.0\nsamples = 4\nvalue = [4, 0]\nclass = 1", fillcolor="#e58139"] ;
228 -> 232 ;
233 [label="crl.tot <= 31.5\nentropy = 0.371\nsamples = 42\nvalue = [39, 3]\nclass = 1", fillcolor="#e78b48"] ;
225 -> 233 ;
234 [label="entropy = 0.0\nsamples = 26\nvalue = [26, 0]\nclass = 1", fillcolor="#e58139"] ;
233 -> 234 ;
235 [label="bang <= 0.32\nentropy = 0.696\nsamples = 16\nvalue = [13, 3]\nclass = 1", fillcolor="#eb9e67"] ;
233 -> 235 ;
236 [label="bang <= 0.306\nentropy = 0.881\nsamples = 10\nvalue = [7, 3]\nclass = 1", fillcolor="#f0b78e"] ;
235 -> 236 ;
237 [label="entropy = 0.764\nsamples = 9\nvalue = [7, 2]\nclass = 1", fillcolor="#eca572"] ;
236 -> 237 ;
238 [label="entropy = 0.0\nsamples = 1\nvalue = [0, 1]\nclass = 1", fillcolor="#399de5"] ;
236 -> 238 ;
239 [label="entropy = 0.0\nsamples = 6\nvalue = [6, 0]\nclass = 1", fillcolor="#e58139"] ;
235 -> 239 ;
240 [label="crl.tot <= 27.0\nentropy = 0.877\nsamples = 27\nvalue = [19, 8]\nclass = 1", fillcolor="#f0b68c"] ;
224 -> 240 ;
241 [label="bang <= 0.618\nentropy = 0.592\nsamples = 21\nvalue = [18, 3]\nclass = 1", fillcolor="#e9965a"] ;
240 -> 241 ;
242 [label="entropy = 0.0\nsamples = 1\nvalue = [0, 1]\nclass = 1", fillcolor="#399de5"] ;
241 -> 242 ;
243 [label="bang <= 0.712\nentropy = 0.469\nsamples = 20\nvalue = [18, 2]\nclass = 1", fillcolor="#e88f4f"] ;
241 -> 243 ;
244 [label="entropy = 0.0\nsamples = 8\nvalue = [8, 0]\nclass = 1", fillcolor="#e58139"] ;
243 -> 244 ;
245 [label="crl.tot <= 22.5\nentropy = 0.65\nsamples = 12\nvalue = [10, 2]\nclass = 1", fillcolor="#ea9a61"] ;
243 -> 245 ;
246 [label="entropy = 0.439\nsamples = 11\nvalue = [10, 1]\nclass = 1", fillcolor="#e88e4d"] ;
245 -> 246 ;
247 [label="entropy = 0.0\nsamples = 1\nvalue = [0, 1]\nclass = 1", fillcolor="#399de5"] ;
245 -> 247 ;
248 [label="bang <= 0.69\nentropy = 0.65\nsamples = 6\nvalue = [1, 5]\nclass = 1", fillcolor="#61b1ea"] ;
240 -> 248 ;
249 [label="bang <= 0.678\nentropy = 0.918\nsamples = 3\nvalue = [1, 2]\nclass = 1", fillcolor="#9ccef2"] ;
248 -> 249 ;
250 [label="entropy = 0.0\nsamples = 2\nvalue = [0, 2]\nclass = 1", fillcolor="#399de5"] ;
249 -> 250 ;
251 [label="entropy = 0.0\nsamples = 1\nvalue = [1, 0]\nclass = 1", fillcolor="#e58139"] ;
249 -> 251 ;
252 [label="entropy = 0.0\nsamples = 3\nvalue = [0, 3]\nclass = 1", fillcolor="#399de5"] ;
248 -> 252 ;
253 [label="crl.tot <= 39.5\nentropy = 0.229\nsamples = 27\nvalue = [26, 1]\nclass = 1", fillcolor="#e68641"] ;
223 -> 253 ;
254 [label="entropy = 0.0\nsamples = 20\nvalue = [20, 0]\nclass = 1", fillcolor="#e58139"] ;
253 -> 254 ;
255 [label="bang <= 0.203\nentropy = 0.592\nsamples = 7\nvalue = [6, 1]\nclass = 1", fillcolor="#e9965a"] ;
253 -> 255 ;
256 [label="bang <= 0.164\nentropy = 0.918\nsamples = 3\nvalue = [2, 1]\nclass = 1", fillcolor="#f2c09c"] ;
255 -> 256 ;
257 [label="entropy = 0.0\nsamples = 2\nvalue = [2, 0]\nclass = 1", fillcolor="#e58139"] ;
256 -> 257 ;
258 [label="entropy = 0.0\nsamples = 1\nvalue = [0, 1]\nclass = 1", fillcolor="#399de5"] ;
256 -> 258 ;
259 [label="entropy = 0.0\nsamples = 4\nvalue = [4, 0]\nclass = 1", fillcolor="#e58139"] ;
255 -> 259 ;
260 [label="entropy = 0.0\nsamples = 2\nvalue = [0, 2]\nclass = 1", fillcolor="#399de5"] ;
220 -> 260 ;
261 [label="bang <= 0.266\nentropy = 0.927\nsamples = 187\nvalue = [123, 64]\nclass = 1", fillcolor="#f3c3a0"] ;
219 -> 261 ;
262 [label="bang <= 0.161\nentropy = 0.701\nsamples = 100\nvalue = [81, 19]\nclass = 1", fillcolor="#eb9f67"] ;
261 -> 262 ;
263 [label="bang <= 0.119\nentropy = 0.523\nsamples = 51\nvalue = [45, 6]\nclass = 1", fillcolor="#e89253"] ;
262 -> 263 ;
264 [label="bang <= 0.08\nentropy = 0.722\nsamples = 30\nvalue = [24, 6]\nclass = 1", fillcolor="#eca06a"] ;
263 -> 264 ;
265 [label="make <= 0.255\nentropy = 0.918\nsamples = 3\nvalue = [1, 2]\nclass = 1", fillcolor="#9ccef2"] ;
264 -> 265 ;
266 [label="entropy = 0.0\nsamples = 2\nvalue = [0, 2]\nclass = 1", fillcolor="#399de5"] ;
265 -> 266 ;
267 [label="entropy = 0.0\nsamples = 1\nvalue = [1, 0]\nclass = 1", fillcolor="#e58139"] ;
265 -> 267 ;
268 [label="bang <= 0.104\nentropy = 0.605\nsamples = 27\nvalue = [23, 4]\nclass = 1", fillcolor="#ea975b"] ;
264 -> 268 ;
269 [label="entropy = 0.0\nsamples = 16\nvalue = [16, 0]\nclass = 1", fillcolor="#e58139"] ;
268 -> 269 ;
270 [label="crl.tot <= 71.5\nentropy = 0.946\nsamples = 11\nvalue = [7, 4]\nclass = 1", fillcolor="#f4c9aa"] ;
268 -> 270 ;
271 [label="bang <= 0.11\nentropy = 0.985\nsamples = 7\nvalue = [3, 4]\nclass = 1", fillcolor="#cee6f8"] ;
270 -> 271 ;
272 [label="entropy = 0.0\nsamples = 2\nvalue = [0, 2]\nclass = 1", fillcolor="#399de5"] ;
271 -> 272 ;
273 [label="bang <= 0.117\nentropy = 0.971\nsamples = 5\nvalue = [3, 2]\nclass = 1", fillcolor="#f6d5bd"] ;
271 -> 273 ;
274 [label="entropy = 0.811\nsamples = 4\nvalue = [3, 1]\nclass = 1", fillcolor="#eeab7b"] ;
273 -> 274 ;
275 [label="entropy = 0.0\nsamples = 1\nvalue = [0, 1]\nclass = 1", fillcolor="#399de5"] ;
273 -> 275 ;
276 [label="entropy = 0.0\nsamples = 4\nvalue = [4, 0]\nclass = 1", fillcolor="#e58139"] ;
270 -> 276 ;
277 [label="entropy = 0.0\nsamples = 21\nvalue = [21, 0]\nclass = 1", fillcolor="#e58139"] ;
263 -> 277 ;
278 [label="bang <= 0.234\nentropy = 0.835\nsamples = 49\nvalue = [36, 13]\nclass = 1", fillcolor="#eeae80"] ;
262 -> 278 ;
279 [label="make <= 0.41\nentropy = 0.928\nsamples = 35\nvalue = [23, 12]\nclass = 1", fillcolor="#f3c3a0"] ;
278 -> 279 ;
280 [label="crl.tot <= 52.0\nentropy = 0.991\nsamples = 27\nvalue = [15, 12]\nclass = 1", fillcolor="#fae6d7"] ;
279 -> 280 ;
281 [label="crl.tot <= 49.5\nentropy = 0.845\nsamples = 11\nvalue = [8, 3]\nclass = 1", fillcolor="#efb083"] ;
280 -> 281 ;
282 [label="crl.tot <= 42.5\nentropy = 0.985\nsamples = 7\nvalue = [4, 3]\nclass = 1", fillcolor="#f8e0ce"] ;
281 -> 282 ;
283 [label="entropy = 0.0\nsamples = 1\nvalue = [0, 1]\nclass = 1", fillcolor="#399de5"] ;
282 -> 283 ;
284 [label="bang <= 0.182\nentropy = 0.918\nsamples = 6\nvalue = [4, 2]\nclass = 1", fillcolor="#f2c09c"] ;
282 -> 284 ;
285 [label="entropy = 0.0\nsamples = 3\nvalue = [3, 0]\nclass = 1", fillcolor="#e58139"] ;
284 -> 285 ;
286 [label="entropy = 0.918\nsamples = 3\nvalue = [1, 2]\nclass = 1", fillcolor="#9ccef2"] ;
284 -> 286 ;
287 [label="entropy = 0.0\nsamples = 4\nvalue = [4, 0]\nclass = 1", fillcolor="#e58139"] ;
281 -> 287 ;
288 [label="bang <= 0.194\nentropy = 0.989\nsamples = 16\nvalue = [7, 9]\nclass = 1", fillcolor="#d3e9f9"] ;
280 -> 288 ;
289 [label="entropy = 0.0\nsamples = 4\nvalue = [0, 4]\nclass = 1", fillcolor="#399de5"] ;
288 -> 289 ;
290 [label="crl.tot <= 54.5\nentropy = 0.98\nsamples = 12\nvalue = [7, 5]\nclass = 1", fillcolor="#f8dbc6"] ;
288 -> 290 ;
291 [label="entropy = 0.0\nsamples = 3\nvalue = [0, 3]\nclass = 1", fillcolor="#399de5"] ;
290 -> 291 ;
292 [label="bang <= 0.23\nentropy = 0.764\nsamples = 9\nvalue = [7, 2]\nclass = 1", fillcolor="#eca572"] ;
290 -> 292 ;
293 [label="entropy = 0.544\nsamples = 8\nvalue = [7, 1]\nclass = 1", fillcolor="#e99355"] ;
292 -> 293 ;
294 [label="entropy = 0.0\nsamples = 1\nvalue = [0, 1]\nclass = 1", fillcolor="#399de5"] ;
292 -> 294 ;
295 [label="entropy = 0.0\nsamples = 8\nvalue = [8, 0]\nclass = 1", fillcolor="#e58139"] ;
279 -> 295 ;
296 [label="make <= 1.51\nentropy = 0.371\nsamples = 14\nvalue = [13, 1]\nclass = 1", fillcolor="#e78b48"] ;
278 -> 296 ;
297 [label="entropy = 0.0\nsamples = 13\nvalue = [13, 0]\nclass = 1", fillcolor="#e58139"] ;
296 -> 297 ;
298 [label="entropy = 0.0\nsamples = 1\nvalue = [0, 1]\nclass = 1", fillcolor="#399de5"] ;
296 -> 298 ;
299 [label="money <= 0.325\nentropy = 0.999\nsamples = 87\nvalue = [42, 45]\nclass = 1", fillcolor="#f2f8fd"] ;
261 -> 299 ;
300 [label="crl.tot <= 67.5\nentropy = 1.0\nsamples = 82\nvalue = [42, 40]\nclass = 1", fillcolor="#fef9f6"] ;
299 -> 300 ;
301 [label="crl.tot <= 65.5\nentropy = 0.963\nsamples = 49\nvalue = [30, 19]\nclass = 1", fillcolor="#f5d1b6"] ;
300 -> 301 ;
302 [label="n000 <= 0.64\nentropy = 0.987\nsamples = 44\nvalue = [25, 19]\nclass = 1", fillcolor="#f9e1cf"] ;
301 -> 302 ;
303 [label="bang <= 0.579\nentropy = 0.981\nsamples = 43\nvalue = [25, 18]\nclass = 1", fillcolor="#f8dcc8"] ;
302 -> 303 ;
304 [label="bang <= 0.521\nentropy = 0.993\nsamples = 40\nvalue = [22, 18]\nclass = 1", fillcolor="#fae8db"] ;
303 -> 304 ;
305 [label="crl.tot <= 59.5\nentropy = 0.974\nsamples = 37\nvalue = [22, 15]\nclass = 1", fillcolor="#f7d7c0"] ;
304 -> 305 ;
306 [label="entropy = 0.994\nsamples = 33\nvalue = [18, 15]\nclass = 1", fillcolor="#fbeade"] ;
305 -> 306 ;
307 [label="entropy = 0.0\nsamples = 4\nvalue = [4, 0]\nclass = 1", fillcolor="#e58139"] ;
305 -> 307 ;
308 [label="entropy = 0.0\nsamples = 3\nvalue = [0, 3]\nclass = 1", fillcolor="#399de5"] ;
304 -> 308 ;
309 [label="entropy = 0.0\nsamples = 3\nvalue = [3, 0]\nclass = 1", fillcolor="#e58139"] ;
303 -> 309 ;
310 [label="entropy = 0.0\nsamples = 1\nvalue = [0, 1]\nclass = 1", fillcolor="#399de5"] ;
302 -> 310 ;
311 [label="entropy = 0.0\nsamples = 5\nvalue = [5, 0]\nclass = 1", fillcolor="#e58139"] ;
301 -> 311 ;
312 [label="bang <= 0.568\nentropy = 0.946\nsamples = 33\nvalue = [12, 21]\nclass = 1", fillcolor="#aad5f4"] ;
300 -> 312 ;
313 [label="crl.tot <= 71.0\nentropy = 0.999\nsamples = 25\nvalue = [12, 13]\nclass = 1", fillcolor="#f0f7fd"] ;
312 -> 313 ;
314 [label="entropy = 0.0\nsamples = 5\nvalue = [0, 5]\nclass = 1", fillcolor="#399de5"] ;
313 -> 314 ;
315 [label="bang <= 0.271\nentropy = 0.971\nsamples = 20\nvalue = [12, 8]\nclass = 1", fillcolor="#f6d5bd"] ;
313 -> 315 ;
316 [label="entropy = 0.0\nsamples = 3\nvalue = [0, 3]\nclass = 1", fillcolor="#399de5"] ;
315 -> 316 ;
317 [label="bang <= 0.289\nentropy = 0.874\nsamples = 17\nvalue = [12, 5]\nclass = 1", fillcolor="#f0b58b"] ;
315 -> 317 ;
318 [label="entropy = 0.0\nsamples = 4\nvalue = [4, 0]\nclass = 1", fillcolor="#e58139"] ;
317 -> 318 ;
319 [label="make <= 0.27\nentropy = 0.961\nsamples = 13\nvalue = [8, 5]\nclass = 1", fillcolor="#f5d0b5"] ;
317 -> 319 ;
320 [label="entropy = 1.0\nsamples = 10\nvalue = [5, 5]\nclass = 1", fillcolor="#ffffff"] ;
319 -> 320 ;
321 [label="entropy = 0.0\nsamples = 3\nvalue = [3, 0]\nclass = 1", fillcolor="#e58139"] ;
319 -> 321 ;
322 [label="entropy = 0.0\nsamples = 8\nvalue = [0, 8]\nclass = 1", fillcolor="#399de5"] ;
312 -> 322 ;
323 [label="entropy = 0.0\nsamples = 5\nvalue = [0, 5]\nclass = 1", fillcolor="#399de5"] ;
299 -> 323 ;
324 [label="crl.tot <= 14.5\nentropy = 0.967\nsamples = 89\nvalue = [35, 54]\nclass = 1", fillcolor="#b9ddf6"] ;
218 -> 324 ;
325 [label="crl.tot <= 2.5\nentropy = 0.811\nsamples = 24\nvalue = [18, 6]\nclass = 1", fillcolor="#eeab7b"] ;
324 -> 325 ;
326 [label="entropy = 0.0\nsamples = 2\nvalue = [0, 2]\nclass = 1", fillcolor="#399de5"] ;
325 -> 326 ;
327 [label="bang <= 0.898\nentropy = 0.684\nsamples = 22\nvalue = [18, 4]\nclass = 1", fillcolor="#eb9d65"] ;
325 -> 327 ;
328 [label="crl.tot <= 7.0\nentropy = 0.918\nsamples = 3\nvalue = [1, 2]\nclass = 1", fillcolor="#9ccef2"] ;
327 -> 328 ;
329 [label="entropy = 0.0\nsamples = 1\nvalue = [1, 0]\nclass = 1", fillcolor="#e58139"] ;
328 -> 329 ;
330 [label="entropy = 0.0\nsamples = 2\nvalue = [0, 2]\nclass = 1", fillcolor="#399de5"] ;
328 -> 330 ;
331 [label="bang <= 1.596\nentropy = 0.485\nsamples = 19\nvalue = [17, 2]\nclass = 1", fillcolor="#e89050"] ;
327 -> 331 ;
332 [label="entropy = 0.0\nsamples = 10\nvalue = [10, 0]\nclass = 1", fillcolor="#e58139"] ;
331 -> 332 ;
333 [label="bang <= 1.82\nentropy = 0.764\nsamples = 9\nvalue = [7, 2]\nclass = 1", fillcolor="#eca572"] ;
331 -> 333 ;
334 [label="entropy = 0.0\nsamples = 1\nvalue = [0, 1]\nclass = 1", fillcolor="#399de5"] ;
333 -> 334 ;
335 [label="bang <= 3.959\nentropy = 0.544\nsamples = 8\nvalue = [7, 1]\nclass = 1", fillcolor="#e99355"] ;
333 -> 335 ;
336 [label="entropy = 0.0\nsamples = 5\nvalue = [5, 0]\nclass = 1", fillcolor="#e58139"] ;
335 -> 336 ;
337 [label="crl.tot <= 8.5\nentropy = 0.918\nsamples = 3\nvalue = [2, 1]\nclass = 1", fillcolor="#f2c09c"] ;
335 -> 337 ;
338 [label="entropy = 0.0\nsamples = 2\nvalue = [2, 0]\nclass = 1", fillcolor="#e58139"] ;
337 -> 338 ;
339 [label="entropy = 0.0\nsamples = 1\nvalue = [0, 1]\nclass = 1", fillcolor="#399de5"] ;
337 -> 339 ;
340 [label="bang <= 8.709\nentropy = 0.829\nsamples = 65\nvalue = [17, 48]\nclass = 1", fillcolor="#7fc0ee"] ;
324 -> 340 ;
341 [label="crl.tot <= 32.5\nentropy = 0.792\nsamples = 63\nvalue = [15, 48]\nclass = 1", fillcolor="#77bced"] ;
340 -> 341 ;
342 [label="bang <= 1.259\nentropy = 0.959\nsamples = 21\nvalue = [8, 13]\nclass = 1", fillcolor="#b3d9f5"] ;
341 -> 342 ;
343 [label="bang <= 1.117\nentropy = 0.946\nsamples = 11\nvalue = [7, 4]\nclass = 1", fillcolor="#f4c9aa"] ;
342 -> 343 ;
344 [label="bang <= 1.001\nentropy = 0.985\nsamples = 7\nvalue = [3, 4]\nclass = 1", fillcolor="#cee6f8"] ;
343 -> 344 ;
345 [label="crl.tot <= 26.5\nentropy = 0.811\nsamples = 4\nvalue = [3, 1]\nclass = 1", fillcolor="#eeab7b"] ;
344 -> 345 ;
346 [label="entropy = 0.0\nsamples = 2\nvalue = [2, 0]\nclass = 1", fillcolor="#e58139"] ;
345 -> 346 ;
347 [label="crl.tot <= 30.0\nentropy = 1.0\nsamples = 2\nvalue = [1, 1]\nclass = 1", fillcolor="#ffffff"] ;
345 -> 347 ;
348 [label="entropy = 0.0\nsamples = 1\nvalue = [0, 1]\nclass = 1", fillcolor="#399de5"] ;
347 -> 348 ;
349 [label="entropy = 0.0\nsamples = 1\nvalue = [1, 0]\nclass = 1", fillcolor="#e58139"] ;
347 -> 349 ;
350 [label="entropy = 0.0\nsamples = 3\nvalue = [0, 3]\nclass = 1", fillcolor="#399de5"] ;
344 -> 350 ;
351 [label="entropy = 0.0\nsamples = 4\nvalue = [4, 0]\nclass = 1", fillcolor="#e58139"] ;
343 -> 351 ;
352 [label="bang <= 3.145\nentropy = 0.469\nsamples = 10\nvalue = [1, 9]\nclass = 1", fillcolor="#4fa8e8"] ;
342 -> 352 ;
353 [label="bang <= 2.737\nentropy = 0.722\nsamples = 5\nvalue = [1, 4]\nclass = 1", fillcolor="#6ab6ec"] ;
352 -> 353 ;
354 [label="entropy = 0.0\nsamples = 4\nvalue = [0, 4]\nclass = 1", fillcolor="#399de5"] ;
353 -> 354 ;
355 [label="entropy = 0.0\nsamples = 1\nvalue = [1, 0]\nclass = 1", fillcolor="#e58139"] ;
353 -> 355 ;
356 [label="entropy = 0.0\nsamples = 5\nvalue = [0, 5]\nclass = 1", fillcolor="#399de5"] ;
352 -> 356 ;
357 [label="bang <= 4.321\nentropy = 0.65\nsamples = 42\nvalue = [7, 35]\nclass = 1", fillcolor="#61b1ea"] ;
341 -> 357 ;
358 [label="bang <= 1.549\nentropy = 0.477\nsamples = 39\nvalue = [4, 35]\nclass = 1", fillcolor="#50a8e8"] ;
357 -> 358 ;
359 [label="bang <= 1.539\nentropy = 0.667\nsamples = 23\nvalue = [4, 19]\nclass = 1", fillcolor="#63b2ea"] ;
358 -> 359 ;
360 [label="bang <= 0.958\nentropy = 0.575\nsamples = 22\nvalue = [3, 19]\nclass = 1", fillcolor="#58ace9"] ;
359 -> 360 ;
361 [label="crl.tot <= 72.5\nentropy = 0.845\nsamples = 11\nvalue = [3, 8]\nclass = 1", fillcolor="#83c2ef"] ;
360 -> 361 ;
362 [label="crl.tot <= 39.5\nentropy = 0.544\nsamples = 8\nvalue = [1, 7]\nclass = 1", fillcolor="#55abe9"] ;
361 -> 362 ;
363 [label="entropy = 0.918\nsamples = 3\nvalue = [1, 2]\nclass = 1", fillcolor="#9ccef2"] ;
362 -> 363 ;
364 [label="entropy = 0.0\nsamples = 5\nvalue = [0, 5]\nclass = 1", fillcolor="#399de5"] ;
362 -> 364 ;
365 [label="crl.tot <= 79.0\nentropy = 0.918\nsamples = 3\nvalue = [2, 1]\nclass = 1", fillcolor="#f2c09c"] ;
361 -> 365 ;
366 [label="entropy = 0.0\nsamples = 2\nvalue = [2, 0]\nclass = 1", fillcolor="#e58139"] ;
365 -> 366 ;
367 [label="entropy = 0.0\nsamples = 1\nvalue = [0, 1]\nclass = 1", fillcolor="#399de5"] ;
365 -> 367 ;
368 [label="entropy = 0.0\nsamples = 11\nvalue = [0, 11]\nclass = 1", fillcolor="#399de5"] ;
360 -> 368 ;
369 [label="entropy = 0.0\nsamples = 1\nvalue = [1, 0]\nclass = 1", fillcolor="#e58139"] ;
359 -> 369 ;
370 [label="entropy = 0.0\nsamples = 16\nvalue = [0, 16]\nclass = 1", fillcolor="#399de5"] ;
358 -> 370 ;
371 [label="entropy = 0.0\nsamples = 3\nvalue = [3, 0]\nclass = 1", fillcolor="#e58139"] ;
357 -> 371 ;
372 [label="entropy = 0.0\nsamples = 2\nvalue = [2, 0]\nclass = 1", fillcolor="#e58139"] ;
340 -> 372 ;
373 [label="bang <= 0.377\nentropy = 0.822\nsamples = 424\nvalue = [109, 315]\nclass = 1", fillcolor="#7ebfee"] ;
217 -> 373 ;
374 [label="money <= 0.04\nentropy = 0.98\nsamples = 226\nvalue = [94, 132]\nclass = 1", fillcolor="#c6e3f8"] ;
373 -> 374 ;
375 [label="n000 <= 0.205\nentropy = 0.991\nsamples = 167\nvalue = [93, 74]\nclass = 1", fillcolor="#fae5d7"] ;
374 -> 375 ;
376 [label="crl.tot <= 336.5\nentropy = 0.979\nsamples = 159\nvalue = [93, 66]\nclass = 1", fillcolor="#f7dac6"] ;
375 -> 376 ;
377 [label="bang <= 0.12\nentropy = 0.921\nsamples = 125\nvalue = [83, 42]\nclass = 1", fillcolor="#f2c19d"] ;
376 -> 377 ;
378 [label="crl.tot <= 126.0\nentropy = 0.602\nsamples = 34\nvalue = [29, 5]\nclass = 1", fillcolor="#e9975b"] ;
377 -> 378 ;
379 [label="crl.tot <= 123.5\nentropy = 0.852\nsamples = 18\nvalue = [13, 5]\nclass = 1", fillcolor="#efb185"] ;
378 -> 379 ;
380 [label="crl.tot <= 86.5\nentropy = 0.696\nsamples = 16\nvalue = [13, 3]\nclass = 1", fillcolor="#eb9e67"] ;
379 -> 380 ;
381 [label="entropy = 0.0\nsamples = 1\nvalue = [0, 1]\nclass = 1", fillcolor="#399de5"] ;
380 -> 381 ;
382 [label="crl.tot <= 99.5\nentropy = 0.567\nsamples = 15\nvalue = [13, 2]\nclass = 1", fillcolor="#e99457"] ;
380 -> 382 ;
383 [label="entropy = 0.0\nsamples = 9\nvalue = [9, 0]\nclass = 1", fillcolor="#e58139"] ;
382 -> 383 ;
384 [label="bang <= 0.113\nentropy = 0.918\nsamples = 6\nvalue = [4, 2]\nclass = 1", fillcolor="#f2c09c"] ;
382 -> 384 ;
385 [label="entropy = 1.0\nsamples = 4\nvalue = [2, 2]\nclass = 1", fillcolor="#ffffff"] ;
384 -> 385 ;
386 [label="entropy = 0.0\nsamples = 2\nvalue = [2, 0]\nclass = 1", fillcolor="#e58139"] ;
384 -> 386 ;
387 [label="entropy = 0.0\nsamples = 2\nvalue = [0, 2]\nclass = 1", fillcolor="#399de5"] ;
379 -> 387 ;
388 [label="entropy = 0.0\nsamples = 16\nvalue = [16, 0]\nclass = 1", fillcolor="#e58139"] ;
378 -> 388 ;
389 [label="crl.tot <= 92.5\nentropy = 0.975\nsamples = 91\nvalue = [54, 37]\nclass = 1", fillcolor="#f7d7c1"] ;
377 -> 389 ;
390 [label="entropy = 0.0\nsamples = 4\nvalue = [4, 0]\nclass = 1", fillcolor="#e58139"] ;
389 -> 390 ;
391 [label="crl.tot <= 98.0\nentropy = 0.984\nsamples = 87\nvalue = [50, 37]\nclass = 1", fillcolor="#f8decc"] ;
389 -> 391 ;
392 [label="bang <= 0.188\nentropy = 0.544\nsamples = 8\nvalue = [1, 7]\nclass = 1", fillcolor="#55abe9"] ;
391 -> 392 ;
393 [label="entropy = 0.0\nsamples = 5\nvalue = [0, 5]\nclass = 1", fillcolor="#399de5"] ;
392 -> 393 ;
394 [label="bang <= 0.253\nentropy = 0.918\nsamples = 3\nvalue = [1, 2]\nclass = 1", fillcolor="#9ccef2"] ;
392 -> 394 ;
395 [label="entropy = 0.0\nsamples = 1\nvalue = [1, 0]\nclass = 1", fillcolor="#e58139"] ;
394 -> 395 ;
396 [label="entropy = 0.0\nsamples = 2\nvalue = [0, 2]\nclass = 1", fillcolor="#399de5"] ;
394 -> 396 ;
397 [label="bang <= 0.122\nentropy = 0.958\nsamples = 79\nvalue = [49, 30]\nclass = 1", fillcolor="#f5ceb2"] ;
391 -> 397 ;
398 [label="entropy = 0.0\nsamples = 2\nvalue = [0, 2]\nclass = 1", fillcolor="#399de5"] ;
397 -> 398 ;
399 [label="bang <= 0.194\nentropy = 0.946\nsamples = 77\nvalue = [49, 28]\nclass = 1", fillcolor="#f4c9aa"] ;
397 -> 399 ;
400 [label="bang <= 0.157\nentropy = 0.8\nsamples = 37\nvalue = [28, 9]\nclass = 1", fillcolor="#edaa79"] ;
399 -> 400 ;
401 [label="entropy = 0.954\nsamples = 24\nvalue = [15, 9]\nclass = 1", fillcolor="#f5cdb0"] ;
400 -> 401 ;
402 [label="entropy = 0.0\nsamples = 13\nvalue = [13, 0]\nclass = 1", fillcolor="#e58139"] ;
400 -> 402 ;
403 [label="bang <= 0.238\nentropy = 0.998\nsamples = 40\nvalue = [21, 19]\nclass = 1", fillcolor="#fdf3ec"] ;
399 -> 403 ;
404 [label="entropy = 0.684\nsamples = 11\nvalue = [2, 9]\nclass = 1", fillcolor="#65b3eb"] ;
403 -> 404 ;
405 [label="entropy = 0.929\nsamples = 29\nvalue = [19, 10]\nclass = 1", fillcolor="#f3c3a1"] ;
403 -> 405 ;
406 [label="bang <= 0.164\nentropy = 0.874\nsamples = 34\nvalue = [10, 24]\nclass = 1", fillcolor="#8bc6f0"] ;
376 -> 406 ;
407 [label="dollar <= 0.009\nentropy = 0.98\nsamples = 12\nvalue = [7, 5]\nclass = 1", fillcolor="#f8dbc6"] ;
406 -> 407 ;
408 [label="make <= 0.49\nentropy = 0.764\nsamples = 9\nvalue = [7, 2]\nclass = 1", fillcolor="#eca572"] ;
407 -> 408 ;
409 [label="crl.tot <= 610.5\nentropy = 0.544\nsamples = 8\nvalue = [7, 1]\nclass = 1", fillcolor="#e99355"] ;
408 -> 409 ;
410 [label="make <= 0.05\nentropy = 1.0\nsamples = 2\nvalue = [1, 1]\nclass = 1", fillcolor="#ffffff"] ;
409 -> 410 ;
411 [label="entropy = 0.0\nsamples = 1\nvalue = [0, 1]\nclass = 1", fillcolor="#399de5"] ;
410 -> 411 ;
412 [label="entropy = 0.0\nsamples = 1\nvalue = [1, 0]\nclass = 1", fillcolor="#e58139"] ;
410 -> 412 ;
413 [label="entropy = 0.0\nsamples = 6\nvalue = [6, 0]\nclass = 1", fillcolor="#e58139"] ;
409 -> 413 ;
414 [label="entropy = 0.0\nsamples = 1\nvalue = [0, 1]\nclass = 1", fillcolor="#399de5"] ;
408 -> 414 ;
415 [label="entropy = 0.0\nsamples = 3\nvalue = [0, 3]\nclass = 1", fillcolor="#399de5"] ;
407 -> 415 ;
416 [label="bang <= 0.372\nentropy = 0.575\nsamples = 22\nvalue = [3, 19]\nclass = 1", fillcolor="#58ace9"] ;
406 -> 416 ;
417 [label="bang <= 0.205\nentropy = 0.454\nsamples = 21\nvalue = [2, 19]\nclass = 1", fillcolor="#4ea7e8"] ;
416 -> 417 ;
418 [label="entropy = 0.0\nsamples = 9\nvalue = [0, 9]\nclass = 1", fillcolor="#399de5"] ;
417 -> 418 ;
419 [label="bang <= 0.241\nentropy = 0.65\nsamples = 12\nvalue = [2, 10]\nclass = 1", fillcolor="#61b1ea"] ;
417 -> 419 ;
420 [label="crl.tot <= 477.0\nentropy = 0.918\nsamples = 3\nvalue = [2, 1]\nclass = 1", fillcolor="#f2c09c"] ;
419 -> 420 ;
421 [label="entropy = 0.0\nsamples = 1\nvalue = [1, 0]\nclass = 1", fillcolor="#e58139"] ;
420 -> 421 ;
422 [label="bang <= 0.211\nentropy = 1.0\nsamples = 2\nvalue = [1, 1]\nclass = 1", fillcolor="#ffffff"] ;
420 -> 422 ;
423 [label="entropy = 0.0\nsamples = 1\nvalue = [1, 0]\nclass = 1", fillcolor="#e58139"] ;
422 -> 423 ;
424 [label="entropy = 0.0\nsamples = 1\nvalue = [0, 1]\nclass = 1", fillcolor="#399de5"] ;
422 -> 424 ;
425 [label="entropy = 0.0\nsamples = 9\nvalue = [0, 9]\nclass = 1", fillcolor="#399de5"] ;
419 -> 425 ;
426 [label="entropy = 0.0\nsamples = 1\nvalue = [1, 0]\nclass = 1", fillcolor="#e58139"] ;
416 -> 426 ;
427 [label="entropy = 0.0\nsamples = 8\nvalue = [0, 8]\nclass = 1", fillcolor="#399de5"] ;
375 -> 427 ;
428 [label="crl.tot <= 89.5\nentropy = 0.124\nsamples = 59\nvalue = [1, 58]\nclass = 1", fillcolor="#3c9fe5"] ;
374 -> 428 ;
429 [label="entropy = 0.0\nsamples = 1\nvalue = [1, 0]\nclass = 1", fillcolor="#e58139"] ;
428 -> 429 ;
430 [label="entropy = 0.0\nsamples = 58\nvalue = [0, 58]\nclass = 1", fillcolor="#399de5"] ;
428 -> 430 ;
431 [label="bang <= 0.563\nentropy = 0.387\nsamples = 198\nvalue = [15, 183]\nclass = 1", fillcolor="#49a5e7"] ;
373 -> 431 ;
432 [label="crl.tot <= 173.5\nentropy = 0.668\nsamples = 63\nvalue = [11, 52]\nclass = 1", fillcolor="#63b2ea"] ;
431 -> 432 ;
433 [label="make <= 0.065\nentropy = 0.954\nsamples = 24\nvalue = [9, 15]\nclass = 1", fillcolor="#b0d8f5"] ;
432 -> 433 ;
434 [label="crl.tot <= 136.5\nentropy = 0.831\nsamples = 19\nvalue = [5, 14]\nclass = 1", fillcolor="#80c0ee"] ;
433 -> 434 ;
435 [label="bang <= 0.56\nentropy = 0.961\nsamples = 13\nvalue = [5, 8]\nclass = 1", fillcolor="#b5daf5"] ;
434 -> 435 ;
436 [label="bang <= 0.511\nentropy = 0.918\nsamples = 12\nvalue = [4, 8]\nclass = 1", fillcolor="#9ccef2"] ;
435 -> 436 ;
437 [label="bang <= 0.464\nentropy = 1.0\nsamples = 8\nvalue = [4, 4]\nclass = 1", fillcolor="#ffffff"] ;
436 -> 437 ;
438 [label="crl.tot <= 103.0\nentropy = 0.722\nsamples = 5\nvalue = [1, 4]\nclass = 1", fillcolor="#6ab6ec"] ;
437 -> 438 ;
439 [label="crl.tot <= 95.5\nentropy = 1.0\nsamples = 2\nvalue = [1, 1]\nclass = 1", fillcolor="#ffffff"] ;
438 -> 439 ;
440 [label="entropy = 0.0\nsamples = 1\nvalue = [0, 1]\nclass = 1", fillcolor="#399de5"] ;
439 -> 440 ;
441 [label="entropy = 0.0\nsamples = 1\nvalue = [1, 0]\nclass = 1", fillcolor="#e58139"] ;
439 -> 441 ;
442 [label="entropy = 0.0\nsamples = 3\nvalue = [0, 3]\nclass = 1", fillcolor="#399de5"] ;
438 -> 442 ;
443 [label="entropy = 0.0\nsamples = 3\nvalue = [3, 0]\nclass = 1", fillcolor="#e58139"] ;
437 -> 443 ;
444 [label="entropy = 0.0\nsamples = 4\nvalue = [0, 4]\nclass = 1", fillcolor="#399de5"] ;
436 -> 444 ;
445 [label="entropy = 0.0\nsamples = 1\nvalue = [1, 0]\nclass = 1", fillcolor="#e58139"] ;
435 -> 445 ;
446 [label="entropy = 0.0\nsamples = 6\nvalue = [0, 6]\nclass = 1", fillcolor="#399de5"] ;
434 -> 446 ;
447 [label="bang <= 0.405\nentropy = 0.722\nsamples = 5\nvalue = [4, 1]\nclass = 1", fillcolor="#eca06a"] ;
433 -> 447 ;
448 [label="entropy = 0.0\nsamples = 1\nvalue = [0, 1]\nclass = 1", fillcolor="#399de5"] ;
447 -> 448 ;
449 [label="entropy = 0.0\nsamples = 4\nvalue = [4, 0]\nclass = 1", fillcolor="#e58139"] ;
447 -> 449 ;
450 [label="bang <= 0.474\nentropy = 0.292\nsamples = 39\nvalue = [2, 37]\nclass = 1", fillcolor="#44a2e6"] ;
432 -> 450 ;
451 [label="bang <= 0.436\nentropy = 0.523\nsamples = 17\nvalue = [2, 15]\nclass = 1", fillcolor="#53aae8"] ;
450 -> 451 ;
452 [label="entropy = 0.0\nsamples = 13\nvalue = [0, 13]\nclass = 1", fillcolor="#399de5"] ;
451 -> 452 ;
453 [label="crl.tot <= 236.5\nentropy = 1.0\nsamples = 4\nvalue = [2, 2]\nclass = 1", fillcolor="#ffffff"] ;
451 -> 453 ;
454 [label="entropy = 0.0\nsamples = 1\nvalue = [0, 1]\nclass = 1", fillcolor="#399de5"] ;
453 -> 454 ;
455 [label="crl.tot <= 355.0\nentropy = 0.918\nsamples = 3\nvalue = [2, 1]\nclass = 1", fillcolor="#f2c09c"] ;
453 -> 455 ;
456 [label="entropy = 0.0\nsamples = 2\nvalue = [2, 0]\nclass = 1", fillcolor="#e58139"] ;
455 -> 456 ;
457 [label="entropy = 0.0\nsamples = 1\nvalue = [0, 1]\nclass = 1", fillcolor="#399de5"] ;
455 -> 457 ;
458 [label="entropy = 0.0\nsamples = 22\nvalue = [0, 22]\nclass = 1", fillcolor="#399de5"] ;
450 -> 458 ;
459 [label="dollar <= 0.048\nentropy = 0.193\nsamples = 135\nvalue = [4, 131]\nclass = 1", fillcolor="#3fa0e6"] ;
431 -> 459 ;
460 [label="crl.tot <= 142.5\nentropy = 0.157\nsamples = 131\nvalue = [3, 128]\nclass = 1", fillcolor="#3e9fe6"] ;
459 -> 460 ;
461 [label="crl.tot <= 140.0\nentropy = 0.314\nsamples = 53\nvalue = [3, 50]\nclass = 1", fillcolor="#45a3e7"] ;
460 -> 461 ;
462 [label="bang <= 1.155\nentropy = 0.235\nsamples = 52\nvalue = [2, 50]\nclass = 1", fillcolor="#41a1e6"] ;
461 -> 462 ;
463 [label="entropy = 0.0\nsamples = 30\nvalue = [0, 30]\nclass = 1", fillcolor="#399de5"] ;
462 -> 463 ;
464 [label="bang <= 1.176\nentropy = 0.439\nsamples = 22\nvalue = [2, 20]\nclass = 1", fillcolor="#4da7e8"] ;
462 -> 464 ;
465 [label="entropy = 0.0\nsamples = 1\nvalue = [1, 0]\nclass = 1", fillcolor="#e58139"] ;
464 -> 465 ;
466 [label="make <= 0.685\nentropy = 0.276\nsamples = 21\nvalue = [1, 20]\nclass = 1", fillcolor="#43a2e6"] ;
464 -> 466 ;
467 [label="entropy = 0.0\nsamples = 19\nvalue = [0, 19]\nclass = 1", fillcolor="#399de5"] ;
466 -> 467 ;
468 [label="bang <= 1.898\nentropy = 1.0\nsamples = 2\nvalue = [1, 1]\nclass = 1", fillcolor="#ffffff"] ;
466 -> 468 ;
469 [label="entropy = 0.0\nsamples = 1\nvalue = [0, 1]\nclass = 1", fillcolor="#399de5"] ;
468 -> 469 ;
470 [label="entropy = 0.0\nsamples = 1\nvalue = [1, 0]\nclass = 1", fillcolor="#e58139"] ;
468 -> 470 ;
471 [label="entropy = 0.0\nsamples = 1\nvalue = [1, 0]\nclass = 1", fillcolor="#e58139"] ;
461 -> 471 ;
472 [label="entropy = 0.0\nsamples = 78\nvalue = [0, 78]\nclass = 1", fillcolor="#399de5"] ;
460 -> 472 ;
473 [label="bang <= 1.072\nentropy = 0.811\nsamples = 4\nvalue = [1, 3]\nclass = 1", fillcolor="#7bbeee"] ;
459 -> 473 ;
474 [label="entropy = 0.0\nsamples = 1\nvalue = [1, 0]\nclass = 1", fillcolor="#e58139"] ;
473 -> 474 ;
475 [label="entropy = 0.0\nsamples = 3\nvalue = [0, 3]\nclass = 1", fillcolor="#399de5"] ;
473 -> 475 ;
476 [label="bang <= 0.143\nentropy = 0.509\nsamples = 912\nvalue = [103, 809]\nclass = 1", fillcolor="#52a9e8"] ;
0 -> 476 [labeldistance=2.5, labelangle=-45, headlabel="False"] ;
477 [label="money <= 0.025\nentropy = 0.876\nsamples = 277\nvalue = [82, 195]\nclass = 1", fillcolor="#8cc6f0"] ;
476 -> 477 ;
478 [label="n000 <= 0.52\nentropy = 0.998\nsamples = 157\nvalue = [74, 83]\nclass = 1", fillcolor="#eaf4fc"] ;
477 -> 478 ;
479 [label="dollar <= 0.166\nentropy = 0.978\nsamples = 126\nvalue = [74, 52]\nclass = 1", fillcolor="#f7dac4"] ;
478 -> 479 ;
480 [label="bang <= 0.023\nentropy = 0.833\nsamples = 72\nvalue = [53, 19]\nclass = 1", fillcolor="#eeae80"] ;
479 -> 480 ;
481 [label="crl.tot <= 302.5\nentropy = 0.511\nsamples = 44\nvalue = [39, 5]\nclass = 1", fillcolor="#e89152"] ;
480 -> 481 ;
482 [label="crl.tot <= 107.5\nentropy = 0.691\nsamples = 27\nvalue = [22, 5]\nclass = 1", fillcolor="#eb9e66"] ;
481 -> 482 ;
483 [label="entropy = 0.0\nsamples = 14\nvalue = [14, 0]\nclass = 1", fillcolor="#e58139"] ;
482 -> 483 ;
484 [label="crl.tot <= 274.5\nentropy = 0.961\nsamples = 13\nvalue = [8, 5]\nclass = 1", fillcolor="#f5d0b5"] ;
482 -> 484 ;
485 [label="crl.tot <= 120.5\nentropy = 0.845\nsamples = 11\nvalue = [8, 3]\nclass = 1", fillcolor="#efb083"] ;
484 -> 485 ;
486 [label="dollar <= 0.096\nentropy = 0.971\nsamples = 5\nvalue = [2, 3]\nclass = 1", fillcolor="#bddef6"] ;
485 -> 486 ;
487 [label="entropy = 0.0\nsamples = 2\nvalue = [2, 0]\nclass = 1", fillcolor="#e58139"] ;
486 -> 487 ;
488 [label="entropy = 0.0\nsamples = 3\nvalue = [0, 3]\nclass = 1", fillcolor="#399de5"] ;
486 -> 488 ;
489 [label="entropy = 0.0\nsamples = 6\nvalue = [6, 0]\nclass = 1", fillcolor="#e58139"] ;
485 -> 489 ;
490 [label="entropy = 0.0\nsamples = 2\nvalue = [0, 2]\nclass = 1", fillcolor="#399de5"] ;
484 -> 490 ;
491 [label="entropy = 0.0\nsamples = 17\nvalue = [17, 0]\nclass = 1", fillcolor="#e58139"] ;
481 -> 491 ;
492 [label="bang <= 0.069\nentropy = 1.0\nsamples = 28\nvalue = [14, 14]\nclass = 1", fillcolor="#ffffff"] ;
480 -> 492 ;
493 [label="bang <= 0.047\nentropy = 0.779\nsamples = 13\nvalue = [3, 10]\nclass = 1", fillcolor="#74baed"] ;
492 -> 493 ;
494 [label="make <= 0.23\nentropy = 0.971\nsamples = 5\nvalue = [3, 2]\nclass = 1", fillcolor="#f6d5bd"] ;
493 -> 494 ;
495 [label="entropy = 0.0\nsamples = 3\nvalue = [3, 0]\nclass = 1", fillcolor="#e58139"] ;
494 -> 495 ;
496 [label="entropy = 0.0\nsamples = 2\nvalue = [0, 2]\nclass = 1", fillcolor="#399de5"] ;
494 -> 496 ;
497 [label="entropy = 0.0\nsamples = 8\nvalue = [0, 8]\nclass = 1", fillcolor="#399de5"] ;
493 -> 497 ;
498 [label="bang <= 0.11\nentropy = 0.837\nsamples = 15\nvalue = [11, 4]\nclass = 1", fillcolor="#eeaf81"] ;
492 -> 498 ;
499 [label="entropy = 0.0\nsamples = 7\nvalue = [7, 0]\nclass = 1", fillcolor="#e58139"] ;
498 -> 499 ;
500 [label="dollar <= 0.093\nentropy = 1.0\nsamples = 8\nvalue = [4, 4]\nclass = 1", fillcolor="#ffffff"] ;
498 -> 500 ;
501 [label="dollar <= 0.058\nentropy = 0.722\nsamples = 5\nvalue = [4, 1]\nclass = 1", fillcolor="#eca06a"] ;
500 -> 501 ;
502 [label="entropy = 0.0\nsamples = 1\nvalue = [0, 1]\nclass = 1", fillcolor="#399de5"] ;
501 -> 502 ;
503 [label="entropy = 0.0\nsamples = 4\nvalue = [4, 0]\nclass = 1", fillcolor="#e58139"] ;
501 -> 503 ;
504 [label="entropy = 0.0\nsamples = 3\nvalue = [0, 3]\nclass = 1", fillcolor="#399de5"] ;
500 -> 504 ;
505 [label="dollar <= 0.188\nentropy = 0.964\nsamples = 54\nvalue = [21, 33]\nclass = 1", fillcolor="#b7dbf6"] ;
479 -> 505 ;
506 [label="entropy = 0.0\nsamples = 13\nvalue = [0, 13]\nclass = 1", fillcolor="#399de5"] ;
505 -> 506 ;
507 [label="bang <= 0.083\nentropy = 1.0\nsamples = 41\nvalue = [21, 20]\nclass = 1", fillcolor="#fef9f6"] ;
505 -> 507 ;
508 [label="bang <= 0.015\nentropy = 0.995\nsamples = 35\nvalue = [16, 19]\nclass = 1", fillcolor="#e0f0fb"] ;
507 -> 508 ;
509 [label="dollar <= 0.211\nentropy = 0.999\nsamples = 31\nvalue = [16, 15]\nclass = 1", fillcolor="#fdf7f3"] ;
508 -> 509 ;
510 [label="entropy = 0.0\nsamples = 3\nvalue = [3, 0]\nclass = 1", fillcolor="#e58139"] ;
509 -> 510 ;
511 [label="dollar <= 0.217\nentropy = 0.996\nsamples = 28\nvalue = [13, 15]\nclass = 1", fillcolor="#e5f2fc"] ;
509 -> 511 ;
512 [label="entropy = 0.0\nsamples = 3\nvalue = [0, 3]\nclass = 1", fillcolor="#399de5"] ;
511 -> 512 ;
513 [label="make <= 0.145\nentropy = 0.999\nsamples = 25\nvalue = [13, 12]\nclass = 1", fillcolor="#fdf5f0"] ;
511 -> 513 ;
514 [label="dollar <= 0.289\nentropy = 0.988\nsamples = 23\nvalue = [13, 10]\nclass = 1", fillcolor="#f9e2d1"] ;
513 -> 514 ;
515 [label="entropy = 0.0\nsamples = 3\nvalue = [3, 0]\nclass = 1", fillcolor="#e58139"] ;
514 -> 515 ;
516 [label="crl.tot <= 13.5\nentropy = 1.0\nsamples = 20\nvalue = [10, 10]\nclass = 1", fillcolor="#ffffff"] ;
514 -> 516 ;
517 [label="entropy = 0.0\nsamples = 2\nvalue = [2, 0]\nclass = 1", fillcolor="#e58139"] ;
516 -> 517 ;
518 [label="entropy = 0.991\nsamples = 18\nvalue = [8, 10]\nclass = 1", fillcolor="#d7ebfa"] ;
516 -> 518 ;
519 [label="entropy = 0.0\nsamples = 2\nvalue = [0, 2]\nclass = 1", fillcolor="#399de5"] ;
513 -> 519 ;
520 [label="entropy = 0.0\nsamples = 4\nvalue = [0, 4]\nclass = 1", fillcolor="#399de5"] ;
508 -> 520 ;
521 [label="bang <= 0.132\nentropy = 0.65\nsamples = 6\nvalue = [5, 1]\nclass = 1", fillcolor="#ea9a61"] ;
507 -> 521 ;
522 [label="entropy = 0.0\nsamples = 5\nvalue = [5, 0]\nclass = 1", fillcolor="#e58139"] ;
521 -> 522 ;
523 [label="entropy = 0.0\nsamples = 1\nvalue = [0, 1]\nclass = 1", fillcolor="#399de5"] ;
521 -> 523 ;
524 [label="entropy = 0.0\nsamples = 31\nvalue = [0, 31]\nclass = 1", fillcolor="#399de5"] ;
478 -> 524 ;
525 [label="crl.tot <= 50.0\nentropy = 0.353\nsamples = 120\nvalue = [8, 112]\nclass = 1", fillcolor="#47a4e7"] ;
477 -> 525 ;
526 [label="entropy = 0.0\nsamples = 2\nvalue = [2, 0]\nclass = 1", fillcolor="#e58139"] ;
525 -> 526 ;
527 [label="dollar <= 0.127\nentropy = 0.29\nsamples = 118\nvalue = [6, 112]\nclass = 1", fillcolor="#44a2e6"] ;
525 -> 527 ;
528 [label="crl.tot <= 157.5\nentropy = 0.581\nsamples = 36\nvalue = [5, 31]\nclass = 1", fillcolor="#59ade9"] ;
527 -> 528 ;
529 [label="bang <= 0.032\nentropy = 0.971\nsamples = 5\nvalue = [3, 2]\nclass = 1", fillcolor="#f6d5bd"] ;
528 -> 529 ;
530 [label="entropy = 0.0\nsamples = 2\nvalue = [2, 0]\nclass = 1", fillcolor="#e58139"] ;
529 -> 530 ;
531 [label="dollar <= 0.119\nentropy = 0.918\nsamples = 3\nvalue = [1, 2]\nclass = 1", fillcolor="#9ccef2"] ;
529 -> 531 ;
532 [label="entropy = 0.0\nsamples = 1\nvalue = [0, 1]\nclass = 1", fillcolor="#399de5"] ;
531 -> 532 ;
533 [label="entropy = 1.0\nsamples = 2\nvalue = [1, 1]\nclass = 1", fillcolor="#ffffff"] ;
531 -> 533 ;
534 [label="money <= 0.105\nentropy = 0.345\nsamples = 31\nvalue = [2, 29]\nclass = 1", fillcolor="#47a4e7"] ;
528 -> 534 ;
535 [label="bang <= 0.064\nentropy = 0.863\nsamples = 7\nvalue = [2, 5]\nclass = 1", fillcolor="#88c4ef"] ;
534 -> 535 ;
536 [label="entropy = 0.0\nsamples = 2\nvalue = [2, 0]\nclass = 1", fillcolor="#e58139"] ;
535 -> 536 ;
537 [label="entropy = 0.0\nsamples = 5\nvalue = [0, 5]\nclass = 1", fillcolor="#399de5"] ;
535 -> 537 ;
538 [label="entropy = 0.0\nsamples = 24\nvalue = [0, 24]\nclass = 1", fillcolor="#399de5"] ;
534 -> 538 ;
539 [label="crl.tot <= 736.0\nentropy = 0.095\nsamples = 82\nvalue = [1, 81]\nclass = 1", fillcolor="#3b9ee5"] ;
527 -> 539 ;
540 [label="entropy = 0.0\nsamples = 76\nvalue = [0, 76]\nclass = 1", fillcolor="#399de5"] ;
539 -> 540 ;
541 [label="make <= 0.105\nentropy = 0.65\nsamples = 6\nvalue = [1, 5]\nclass = 1", fillcolor="#61b1ea"] ;
539 -> 541 ;
542 [label="entropy = 0.0\nsamples = 1\nvalue = [1, 0]\nclass = 1", fillcolor="#e58139"] ;
541 -> 542 ;
543 [label="entropy = 0.0\nsamples = 5\nvalue = [0, 5]\nclass = 1", fillcolor="#399de5"] ;
541 -> 543 ;
544 [label="crl.tot <= 487.5\nentropy = 0.21\nsamples = 635\nvalue = [21, 614]\nclass = 1", fillcolor="#40a0e6"] ;
476 -> 544 ;
545 [label="bang <= 0.41\nentropy = 0.325\nsamples = 354\nvalue = [21, 333]\nclass = 1", fillcolor="#45a3e7"] ;
544 -> 545 ;
546 [label="bang <= 0.279\nentropy = 0.526\nsamples = 143\nvalue = [17, 126]\nclass = 1", fillcolor="#54aae9"] ;
545 -> 546 ;
547 [label="dollar <= 0.226\nentropy = 0.222\nsamples = 84\nvalue = [3, 81]\nclass = 1", fillcolor="#40a1e6"] ;
546 -> 547 ;
548 [label="dollar <= 0.224\nentropy = 0.332\nsamples = 49\nvalue = [3, 46]\nclass = 1", fillcolor="#46a3e7"] ;
547 -> 548 ;
549 [label="crl.tot <= 142.5\nentropy = 0.25\nsamples = 48\nvalue = [2, 46]\nclass = 1", fillcolor="#42a1e6"] ;
548 -> 549 ;
550 [label="dollar <= 0.17\nentropy = 0.469\nsamples = 20\nvalue = [2, 18]\nclass = 1", fillcolor="#4fa8e8"] ;
549 -> 550 ;
551 [label="dollar <= 0.167\nentropy = 0.684\nsamples = 11\nvalue = [2, 9]\nclass = 1", fillcolor="#65b3eb"] ;
550 -> 551 ;
552 [label="make <= 0.115\nentropy = 0.469\nsamples = 10\nvalue = [1, 9]\nclass = 1", fillcolor="#4fa8e8"] ;
551 -> 552 ;
553 [label="entropy = 0.0\nsamples = 8\nvalue = [0, 8]\nclass = 1", fillcolor="#399de5"] ;
552 -> 553 ;
554 [label="crl.tot <= 96.0\nentropy = 1.0\nsamples = 2\nvalue = [1, 1]\nclass = 1", fillcolor="#ffffff"] ;
552 -> 554 ;
555 [label="entropy = 0.0\nsamples = 1\nvalue = [0, 1]\nclass = 1", fillcolor="#399de5"] ;
554 -> 555 ;
556 [label="entropy = 0.0\nsamples = 1\nvalue = [1, 0]\nclass = 1", fillcolor="#e58139"] ;
554 -> 556 ;
557 [label="entropy = 0.0\nsamples = 1\nvalue = [1, 0]\nclass = 1", fillcolor="#e58139"] ;
551 -> 557 ;
558 [label="entropy = 0.0\nsamples = 9\nvalue = [0, 9]\nclass = 1", fillcolor="#399de5"] ;
550 -> 558 ;
559 [label="entropy = 0.0\nsamples = 28\nvalue = [0, 28]\nclass = 1", fillcolor="#399de5"] ;
549 -> 559 ;
560 [label="entropy = 0.0\nsamples = 1\nvalue = [1, 0]\nclass = 1", fillcolor="#e58139"] ;
548 -> 560 ;
561 [label="entropy = 0.0\nsamples = 35\nvalue = [0, 35]\nclass = 1", fillcolor="#399de5"] ;
547 -> 561 ;
562 [label="make <= 0.26\nentropy = 0.791\nsamples = 59\nvalue = [14, 45]\nclass = 1", fillcolor="#77bbed"] ;
546 -> 562 ;
563 [label="crl.tot <= 61.5\nentropy = 0.918\nsamples = 42\nvalue = [14, 28]\nclass = 1", fillcolor="#9ccef2"] ;
562 -> 563 ;
564 [label="crl.tot <= 34.0\nentropy = 0.65\nsamples = 6\nvalue = [5, 1]\nclass = 1", fillcolor="#ea9a61"] ;
563 -> 564 ;
565 [label="entropy = 0.0\nsamples = 1\nvalue = [0, 1]\nclass = 1", fillcolor="#399de5"] ;
564 -> 565 ;
566 [label="entropy = 0.0\nsamples = 5\nvalue = [5, 0]\nclass = 1", fillcolor="#e58139"] ;
564 -> 566 ;
567 [label="dollar <= 0.178\nentropy = 0.811\nsamples = 36\nvalue = [9, 27]\nclass = 1", fillcolor="#7bbeee"] ;
563 -> 567 ;
568 [label="bang <= 0.374\nentropy = 0.297\nsamples = 19\nvalue = [1, 18]\nclass = 1", fillcolor="#44a2e6"] ;
567 -> 568 ;
569 [label="entropy = 0.0\nsamples = 18\nvalue = [0, 18]\nclass = 1", fillcolor="#399de5"] ;
568 -> 569 ;
570 [label="entropy = 0.0\nsamples = 1\nvalue = [1, 0]\nclass = 1", fillcolor="#e58139"] ;
568 -> 570 ;
571 [label="dollar <= 0.422\nentropy = 0.998\nsamples = 17\nvalue = [8, 9]\nclass = 1", fillcolor="#e9f4fc"] ;
567 -> 571 ;
572 [label="dollar <= 0.29\nentropy = 0.961\nsamples = 13\nvalue = [8, 5]\nclass = 1", fillcolor="#f5d0b5"] ;
571 -> 572 ;
573 [label="bang <= 0.382\nentropy = 0.991\nsamples = 9\nvalue = [4, 5]\nclass = 1", fillcolor="#d7ebfa"] ;
572 -> 573 ;
574 [label="n000 <= 0.23\nentropy = 0.918\nsamples = 6\nvalue = [4, 2]\nclass = 1", fillcolor="#f2c09c"] ;
573 -> 574 ;
575 [label="dollar <= 0.197\nentropy = 0.722\nsamples = 5\nvalue = [4, 1]\nclass = 1", fillcolor="#eca06a"] ;
574 -> 575 ;
576 [label="entropy = 1.0\nsamples = 2\nvalue = [1, 1]\nclass = 1", fillcolor="#ffffff"] ;
575 -> 576 ;
577 [label="entropy = 0.0\nsamples = 3\nvalue = [3, 0]\nclass = 1", fillcolor="#e58139"] ;
575 -> 577 ;
578 [label="entropy = 0.0\nsamples = 1\nvalue = [0, 1]\nclass = 1", fillcolor="#399de5"] ;
574 -> 578 ;
579 [label="entropy = 0.0\nsamples = 3\nvalue = [0, 3]\nclass = 1", fillcolor="#399de5"] ;
573 -> 579 ;
580 [label="entropy = 0.0\nsamples = 4\nvalue = [4, 0]\nclass = 1", fillcolor="#e58139"] ;
572 -> 580 ;
581 [label="entropy = 0.0\nsamples = 4\nvalue = [0, 4]\nclass = 1", fillcolor="#399de5"] ;
571 -> 581 ;
582 [label="entropy = 0.0\nsamples = 17\nvalue = [0, 17]\nclass = 1", fillcolor="#399de5"] ;
562 -> 582 ;
583 [label="crl.tot <= 35.0\nentropy = 0.136\nsamples = 211\nvalue = [4, 207]\nclass = 1", fillcolor="#3d9fe6"] ;
545 -> 583 ;
584 [label="bang <= 0.708\nentropy = 1.0\nsamples = 4\nvalue = [2, 2]\nclass = 1", fillcolor="#ffffff"] ;
583 -> 584 ;
585 [label="entropy = 0.0\nsamples = 2\nvalue = [0, 2]\nclass = 1", fillcolor="#399de5"] ;
584 -> 585 ;
586 [label="entropy = 0.0\nsamples = 2\nvalue = [2, 0]\nclass = 1", fillcolor="#e58139"] ;
584 -> 586 ;
587 [label="crl.tot <= 481.0\nentropy = 0.079\nsamples = 207\nvalue = [2, 205]\nclass = 1", fillcolor="#3b9ee5"] ;
583 -> 587 ;
588 [label="dollar <= 0.159\nentropy = 0.044\nsamples = 205\nvalue = [1, 204]\nclass = 1", fillcolor="#3a9de5"] ;
587 -> 588 ;
589 [label="dollar <= 0.156\nentropy = 0.122\nsamples = 60\nvalue = [1, 59]\nclass = 1", fillcolor="#3c9fe5"] ;
588 -> 589 ;
590 [label="entropy = 0.0\nsamples = 59\nvalue = [0, 59]\nclass = 1", fillcolor="#399de5"] ;
589 -> 590 ;
591 [label="entropy = 0.0\nsamples = 1\nvalue = [1, 0]\nclass = 1", fillcolor="#e58139"] ;
589 -> 591 ;
592 [label="entropy = 0.0\nsamples = 145\nvalue = [0, 145]\nclass = 1", fillcolor="#399de5"] ;
588 -> 592 ;
593 [label="money <= 0.89\nentropy = 1.0\nsamples = 2\nvalue = [1, 1]\nclass = 1", fillcolor="#ffffff"] ;
587 -> 593 ;
594 [label="entropy = 0.0\nsamples = 1\nvalue = [0, 1]\nclass = 1", fillcolor="#399de5"] ;
593 -> 594 ;
595 [label="entropy = 0.0\nsamples = 1\nvalue = [1, 0]\nclass = 1", fillcolor="#e58139"] ;
593 -> 595 ;
596 [label="entropy = 0.0\nsamples = 281\nvalue = [0, 281]\nclass = 1", fillcolor="#399de5"] ;
544 -> 596 ;
}