digraph Tree {
node [shape=box, style="filled", color="black", fontname="helvetica"] ;
edge [fontname="helvetica"] ;
0 [label="dollar <= 0.056\nentropy = 0.968\nsamples = 3680\nvalue = [2224, 1456]\nclass = 1", fillcolor="#f6d3bb"] ;
1 [label="bang <= 0.08\nentropy = 0.784\nsamples = 2768\nvalue = [2121, 647]\nclass = 1", fillcolor="#eda775"] ;
0 -> 1 [labeldistance=2.5, labelangle=45, headlabel="True"] ;
2 [label="crl.tot <= 29.5\nentropy = 0.466\nsamples = 1906\nvalue = [1717, 189]\nclass = 1", fillcolor="#e88f4f"] ;
1 -> 2 ;
3 [label="crl.tot <= 9.5\nentropy = 0.237\nsamples = 670\nvalue = [644, 26]\nclass = 1", fillcolor="#e68641"] ;
2 -> 3 ;
4 [label="money <= 11.125\nentropy = 0.133\nsamples = 323\nvalue = [317, 6]\nclass = 1", fillcolor="#e5833d"] ;
3 -> 4 ;
5 [label="crl.tot <= 2.5\nentropy = 0.116\nsamples = 322\nvalue = [317, 5]\nclass = 1", fillcolor="#e5833c"] ;
4 -> 5 ;
6 [label="entropy = 0.371\nsamples = 14\nvalue = [13, 1]\nclass = 1", fillcolor="#e78b48"] ;
5 -> 6 ;
7 [label="entropy = 0.1\nsamples = 308\nvalue = [304, 4]\nclass = 1", fillcolor="#e5833c"] ;
5 -> 7 ;
8 [label="entropy = 0.0\nsamples = 1\nvalue = [0, 1]\nclass = 1", fillcolor="#399de5"] ;
4 -> 8 ;
9 [label="make <= 0.21\nentropy = 0.318\nsamples = 347\nvalue = [327, 20]\nclass = 1", fillcolor="#e78945"] ;
3 -> 9 ;
10 [label="money <= 1.015\nentropy = 0.328\nsamples = 333\nvalue = [313, 20]\nclass = 1", fillcolor="#e78946"] ;
9 -> 10 ;
11 [label="entropy = 0.318\nsamples = 329\nvalue = [310, 19]\nclass = 1", fillcolor="#e78945"] ;
10 -> 11 ;
12 [label="entropy = 0.811\nsamples = 4\nvalue = [3, 1]\nclass = 1", fillcolor="#eeab7b"] ;
10 -> 12 ;
13 [label="entropy = 0.0\nsamples = 14\nvalue = [14, 0]\nclass = 1", fillcolor="#e58139"] ;
9 -> 13 ;
14 [label="money <= 0.01\nentropy = 0.563\nsamples = 1236\nvalue = [1073, 163]\nclass = 1", fillcolor="#e99457"] ;
2 -> 14 ;
15 [label="n000 <= 0.115\nentropy = 0.534\nsamples = 1201\nvalue = [1055, 146]\nclass = 1", fillcolor="#e99254"] ;
14 -> 15 ;
16 [label="make <= 0.005\nentropy = 0.512\nsamples = 1174\nvalue = [1040, 134]\nclass = 1", fillcolor="#e89153"] ;
15 -> 16 ;
17 [label="entropy = 0.557\nsamples = 947\nvalue = [824, 123]\nclass = 1", fillcolor="#e99457"] ;
16 -> 17 ;
18 [label="entropy = 0.28\nsamples = 227\nvalue = [216, 11]\nclass = 1", fillcolor="#e68743"] ;
16 -> 18 ;
19 [label="crl.tot <= 365.0\nentropy = 0.991\nsamples = 27\nvalue = [15, 12]\nclass = 1", fillcolor="#fae6d7"] ;
15 -> 19 ;
20 [label="entropy = 0.896\nsamples = 16\nvalue = [5, 11]\nclass = 1", fillcolor="#93caf1"] ;
19 -> 20 ;
21 [label="entropy = 0.439\nsamples = 11\nvalue = [10, 1]\nclass = 1", fillcolor="#e88e4d"] ;
19 -> 21 ;
22 [label="money <= 1.77\nentropy = 0.999\nsamples = 35\nvalue = [18, 17]\nclass = 1", fillcolor="#fef8f4"] ;
14 -> 22 ;
23 [label="n000 <= 0.305\nentropy = 0.981\nsamples = 31\nvalue = [18, 13]\nclass = 1", fillcolor="#f8dcc8"] ;
22 -> 23 ;
24 [label="entropy = 0.94\nsamples = 28\nvalue = [18, 10]\nclass = 1", fillcolor="#f3c7a7"] ;
23 -> 24 ;
25 [label="entropy = 0.0\nsamples = 3\nvalue = [0, 3]\nclass = 1", fillcolor="#399de5"] ;
23 -> 25 ;
26 [label="entropy = 0.0\nsamples = 4\nvalue = [0, 4]\nclass = 1", fillcolor="#399de5"] ;
22 -> 26 ;
27 [label="crl.tot <= 85.5\nentropy = 0.997\nsamples = 862\nvalue = [404, 458]\nclass = 1", fillcolor="#e8f3fc"] ;
1 -> 27 ;
28 [label="bang <= 0.805\nentropy = 0.911\nsamples = 438\nvalue = [295, 143]\nclass = 1", fillcolor="#f2be99"] ;
27 -> 28 ;
29 [label="crl.tot <= 41.5\nentropy = 0.819\nsamples = 349\nvalue = [260, 89]\nclass = 1", fillcolor="#eeac7d"] ;
28 -> 29 ;
30 [label="money <= 3.91\nentropy = 0.621\nsamples = 162\nvalue = [137, 25]\nclass = 1", fillcolor="#ea985d"] ;
29 -> 30 ;
31 [label="entropy = 0.594\nsamples = 160\nvalue = [137, 23]\nclass = 1", fillcolor="#e9965a"] ;
30 -> 31 ;
32 [label="entropy = 0.0\nsamples = 2\nvalue = [0, 2]\nclass = 1", fillcolor="#399de5"] ;
30 -> 32 ;
33 [label="bang <= 0.266\nentropy = 0.927\nsamples = 187\nvalue = [123, 64]\nclass = 1", fillcolor="#f3c3a0"] ;
29 -> 33 ;
34 [label="entropy = 0.701\nsamples = 100\nvalue = [81, 19]\nclass = 1", fillcolor="#eb9f67"] ;
33 -> 34 ;
35 [label="entropy = 0.999\nsamples = 87\nvalue = [42, 45]\nclass = 1", fillcolor="#f2f8fd"] ;
33 -> 35 ;
36 [label="crl.tot <= 14.5\nentropy = 0.967\nsamples = 89\nvalue = [35, 54]\nclass = 1", fillcolor="#b9ddf6"] ;
28 -> 36 ;
37 [label="crl.tot <= 2.5\nentropy = 0.811\nsamples = 24\nvalue = [18, 6]\nclass = 1", fillcolor="#eeab7b"] ;
36 -> 37 ;
38 [label="entropy = 0.0\nsamples = 2\nvalue = [0, 2]\nclass = 1", fillcolor="#399de5"] ;
37 -> 38 ;
39 [label="entropy = 0.684\nsamples = 22\nvalue = [18, 4]\nclass = 1", fillcolor="#eb9d65"] ;
37 -> 39 ;
40 [label="bang <= 8.709\nentropy = 0.829\nsamples = 65\nvalue = [17, 48]\nclass = 1", fillcolor="#7fc0ee"] ;
36 -> 40 ;
41 [label="entropy = 0.792\nsamples = 63\nvalue = [15, 48]\nclass = 1", fillcolor="#77bced"] ;
40 -> 41 ;
42 [label="entropy = 0.0\nsamples = 2\nvalue = [2, 0]\nclass = 1", fillcolor="#e58139"] ;
40 -> 42 ;
43 [label="bang <= 0.377\nentropy = 0.822\nsamples = 424\nvalue = [109, 315]\nclass = 1", fillcolor="#7ebfee"] ;
27 -> 43 ;
44 [label="money <= 0.04\nentropy = 0.98\nsamples = 226\nvalue = [94, 132]\nclass = 1", fillcolor="#c6e3f8"] ;
43 -> 44 ;
45 [label="n000 <= 0.205\nentropy = 0.991\nsamples = 167\nvalue = [93, 74]\nclass = 1", fillcolor="#fae5d7"] ;
44 -> 45 ;
46 [label="entropy = 0.979\nsamples = 159\nvalue = [93, 66]\nclass = 1", fillcolor="#f7dac6"] ;
45 -> 46 ;
47 [label="entropy = 0.0\nsamples = 8\nvalue = [0, 8]\nclass = 1", fillcolor="#399de5"] ;
45 -> 47 ;
48 [label="crl.tot <= 89.5\nentropy = 0.124\nsamples = 59\nvalue = [1, 58]\nclass = 1", fillcolor="#3c9fe5"] ;
44 -> 48 ;
49 [label="entropy = 0.0\nsamples = 1\nvalue = [1, 0]\nclass = 1", fillcolor="#e58139"] ;
48 -> 49 ;
50 [label="entropy = 0.0\nsamples = 58\nvalue = [0, 58]\nclass = 1", fillcolor="#399de5"] ;
48 -> 50 ;
51 [label="bang <= 0.563\nentropy = 0.387\nsamples = 198\nvalue = [15, 183]\nclass = 1", fillcolor="#49a5e7"] ;
43 -> 51 ;
52 [label="crl.tot <= 173.5\nentropy = 0.668\nsamples = 63\nvalue = [11, 52]\nclass = 1", fillcolor="#63b2ea"] ;
51 -> 52 ;
53 [label="entropy = 0.954\nsamples = 24\nvalue = [9, 15]\nclass = 1", fillcolor="#b0d8f5"] ;
52 -> 53 ;
54 [label="entropy = 0.292\nsamples = 39\nvalue = [2, 37]\nclass = 1", fillcolor="#44a2e6"] ;
52 -> 54 ;
55 [label="dollar <= 0.048\nentropy = 0.193\nsamples = 135\nvalue = [4, 131]\nclass = 1", fillcolor="#3fa0e6"] ;
51 -> 55 ;
56 [label="entropy = 0.157\nsamples = 131\nvalue = [3, 128]\nclass = 1", fillcolor="#3e9fe6"] ;
55 -> 56 ;
57 [label="entropy = 0.811\nsamples = 4\nvalue = [1, 3]\nclass = 1", fillcolor="#7bbeee"] ;
55 -> 57 ;
58 [label="bang <= 0.143\nentropy = 0.509\nsamples = 912\nvalue = [103, 809]\nclass = 1", fillcolor="#52a9e8"] ;
0 -> 58 [labeldistance=2.5, labelangle=-45, headlabel="False"] ;
59 [label="money <= 0.025\nentropy = 0.876\nsamples = 277\nvalue = [82, 195]\nclass = 1", fillcolor="#8cc6f0"] ;
58 -> 59 ;
60 [label="n000 <= 0.52\nentropy = 0.998\nsamples = 157\nvalue = [74, 83]\nclass = 1", fillcolor="#eaf4fc"] ;
59 -> 60 ;
61 [label="dollar <= 0.166\nentropy = 0.978\nsamples = 126\nvalue = [74, 52]\nclass = 1", fillcolor="#f7dac4"] ;
60 -> 61 ;
62 [label="bang <= 0.023\nentropy = 0.833\nsamples = 72\nvalue = [53, 19]\nclass = 1", fillcolor="#eeae80"] ;
61 -> 62 ;
63 [label="entropy = 0.511\nsamples = 44\nvalue = [39, 5]\nclass = 1", fillcolor="#e89152"] ;
62 -> 63 ;
64 [label="entropy = 1.0\nsamples = 28\nvalue = [14, 14]\nclass = 1", fillcolor="#ffffff"] ;
62 -> 64 ;
65 [label="dollar <= 0.188\nentropy = 0.964\nsamples = 54\nvalue = [21, 33]\nclass = 1", fillcolor="#b7dbf6"] ;
61 -> 65 ;
66 [label="entropy = 0.0\nsamples = 13\nvalue = [0, 13]\nclass = 1", fillcolor="#399de5"] ;
65 -> 66 ;
67 [label="entropy = 1.0\nsamples = 41\nvalue = [21, 20]\nclass = 1", fillcolor="#fef9f6"] ;
65 -> 67 ;
68 [label="entropy = 0.0\nsamples = 31\nvalue = [0, 31]\nclass = 1", fillcolor="#399de5"] ;
60 -> 68 ;
69 [label="crl.tot <= 50.0\nentropy = 0.353\nsamples = 120\nvalue = [8, 112]\nclass = 1", fillcolor="#47a4e7"] ;
59 -> 69 ;
70 [label="entropy = 0.0\nsamples = 2\nvalue = [2, 0]\nclass = 1", fillcolor="#e58139"] ;
69 -> 70 ;
71 [label="dollar <= 0.127\nentropy = 0.29\nsamples = 118\nvalue = [6, 112]\nclass = 1", fillcolor="#44a2e6"] ;
69 -> 71 ;
72 [label="crl.tot <= 157.5\nentropy = 0.581\nsamples = 36\nvalue = [5, 31]\nclass = 1", fillcolor="#59ade9"] ;
71 -> 72 ;
73 [label="entropy = 0.971\nsamples = 5\nvalue = [3, 2]\nclass = 1", fillcolor="#f6d5bd"] ;
72 -> 73 ;
74 [label="entropy = 0.345\nsamples = 31\nvalue = [2, 29]\nclass = 1", fillcolor="#47a4e7"] ;
72 -> 74 ;
75 [label="crl.tot <= 736.0\nentropy = 0.095\nsamples = 82\nvalue = [1, 81]\nclass = 1", fillcolor="#3b9ee5"] ;
71 -> 75 ;
76 [label="entropy = 0.0\nsamples = 76\nvalue = [0, 76]\nclass = 1", fillcolor="#399de5"] ;
75 -> 76 ;
77 [label="entropy = 0.65\nsamples = 6\nvalue = [1, 5]\nclass = 1", fillcolor="#61b1ea"] ;
75 -> 77 ;
78 [label="crl.tot <= 487.5\nentropy = 0.21\nsamples = 635\nvalue = [21, 614]\nclass = 1", fillcolor="#40a0e6"] ;
58 -> 78 ;
79 [label="bang <= 0.41\nentropy = 0.325\nsamples = 354\nvalue = [21, 333]\nclass = 1", fillcolor="#45a3e7"] ;
78 -> 79 ;
80 [label="bang <= 0.279\nentropy = 0.526\nsamples = 143\nvalue = [17, 126]\nclass = 1", fillcolor="#54aae9"] ;
79 -> 80 ;
81 [label="crl.tot <= 142.5\nentropy = 0.222\nsamples = 84\nvalue = [3, 81]\nclass = 1", fillcolor="#40a1e6"] ;
80 -> 81 ;
82 [label="entropy = 0.332\nsamples = 49\nvalue = [3, 46]\nclass = 1", fillcolor="#46a3e7"] ;
81 -> 82 ;
83 [label="entropy = 0.0\nsamples = 35\nvalue = [0, 35]\nclass = 1", fillcolor="#399de5"] ;
81 -> 83 ;
84 [label="make <= 0.26\nentropy = 0.791\nsamples = 59\nvalue = [14, 45]\nclass = 1", fillcolor="#77bbed"] ;
80 -> 84 ;
85 [label="entropy = 0.918\nsamples = 42\nvalue = [14, 28]\nclass = 1", fillcolor="#9ccef2"] ;
84 -> 85 ;
86 [label="entropy = 0.0\nsamples = 17\nvalue = [0, 17]\nclass = 1", fillcolor="#399de5"] ;
84 -> 86 ;
87 [label="crl.tot <= 35.0\nentropy = 0.136\nsamples = 211\nvalue = [4, 207]\nclass = 1", fillcolor="#3d9fe6"] ;
79 -> 87 ;
88 [label="bang <= 0.708\nentropy = 1.0\nsamples = 4\nvalue = [2, 2]\nclass = 1", fillcolor="#ffffff"] ;
87 -> 88 ;
89 [label="entropy = 0.0\nsamples = 2\nvalue = [0, 2]\nclass = 1", fillcolor="#399de5"] ;
88 -> 89 ;
90 [label="entropy = 0.0\nsamples = 2\nvalue = [2, 0]\nclass = 1", fillcolor="#e58139"] ;
88 -> 90 ;
91 [label="crl.tot <= 481.0\nentropy = 0.079\nsamples = 207\nvalue = [2, 205]\nclass = 1", fillcolor="#3b9ee5"] ;
87 -> 91 ;
92 [label="entropy = 0.044\nsamples = 205\nvalue = [1, 204]\nclass = 1", fillcolor="#3a9de5"] ;
91 -> 92 ;
93 [label="entropy = 1.0\nsamples = 2\nvalue = [1, 1]\nclass = 1", fillcolor="#ffffff"] ;
91 -> 93 ;
94 [label="entropy = 0.0\nsamples = 281\nvalue = [0, 281]\nclass = 1", fillcolor="#399de5"] ;
78 -> 94 ;
}