digraph Tree {
node [shape=box, style="filled", color="black", fontname="helvetica"] ;
edge [fontname="helvetica"] ;
0 [label="dollar <= 0.056\ngini = 0.478\nsamples = 3680\nvalue = [2224, 1456]\nclass = 1", fillcolor="#f6d3bb"] ;
1 [label="bang <= 0.091\ngini = 0.358\nsamples = 2768\nvalue = [2121, 647]\nclass = 1", fillcolor="#eda775"] ;
0 -> 1 [labeldistance=2.5, labelangle=45, headlabel="True"] ;
2 [label="money <= 0.01\ngini = 0.184\nsamples = 1935\nvalue = [1737, 198]\nclass = 1", fillcolor="#e88f50"] ;
1 -> 2 ;
3 [label="crl.tot <= 29.5\ngini = 0.168\nsamples = 1888\nvalue = [1713, 175]\nclass = 1", fillcolor="#e88e4d"] ;
2 -> 3 ;
4 [label="crl.tot <= 9.5\ngini = 0.07\nsamples = 662\nvalue = [638, 24]\nclass = 1", fillcolor="#e68640"] ;
3 -> 4 ;
5 [label="crl.tot <= 2.5\ngini = 0.031\nsamples = 321\nvalue = [316, 5]\nclass = 1", fillcolor="#e5833c"] ;
4 -> 5 ;
6 [label="crl.tot <= 1.5\ngini = 0.133\nsamples = 14\nvalue = [13, 1]\nclass = 1", fillcolor="#e78b48"] ;
5 -> 6 ;
7 [label="gini = 0.0\nsamples = 5\nvalue = [5, 0]\nclass = 1", fillcolor="#e58139"] ;
6 -> 7 ;
8 [label="gini = 0.198\nsamples = 9\nvalue = [8, 1]\nclass = 1", fillcolor="#e89152"] ;
6 -> 8 ;
9 [label="crl.tot <= 3.5\ngini = 0.026\nsamples = 307\nvalue = [303, 4]\nclass = 1", fillcolor="#e5833c"] ;
5 -> 9 ;
10 [label="gini = 0.0\nsamples = 25\nvalue = [25, 0]\nclass = 1", fillcolor="#e58139"] ;
9 -> 10 ;
11 [label="crl.tot <= 4.5\ngini = 0.028\nsamples = 282\nvalue = [278, 4]\nclass = 1", fillcolor="#e5833c"] ;
9 -> 11 ;
12 [label="gini = 0.054\nsamples = 36\nvalue = [35, 1]\nclass = 1", fillcolor="#e6853f"] ;
11 -> 12 ;
13 [label="crl.tot <= 6.5\ngini = 0.024\nsamples = 246\nvalue = [243, 3]\nclass = 1", fillcolor="#e5833b"] ;
11 -> 13 ;
14 [label="crl.tot <= 5.5\ngini = 0.016\nsamples = 125\nvalue = [124, 1]\nclass = 1", fillcolor="#e5823b"] ;
13 -> 14 ;
15 [label="gini = 0.022\nsamples = 90\nvalue = [89, 1]\nclass = 1", fillcolor="#e5823b"] ;
14 -> 15 ;
16 [label="gini = 0.0\nsamples = 35\nvalue = [35, 0]\nclass = 1", fillcolor="#e58139"] ;
14 -> 16 ;
17 [label="crl.tot <= 7.5\ngini = 0.033\nsamples = 121\nvalue = [119, 2]\nclass = 1", fillcolor="#e5833c"] ;
13 -> 17 ;
18 [label="gini = 0.051\nsamples = 38\nvalue = [37, 1]\nclass = 1", fillcolor="#e6843e"] ;
17 -> 18 ;
19 [label="gini = 0.024\nsamples = 83\nvalue = [82, 1]\nclass = 1", fillcolor="#e5833b"] ;
17 -> 19 ;
20 [label="crl.tot <= 28.5\ngini = 0.105\nsamples = 341\nvalue = [322, 19]\nclass = 1", fillcolor="#e78845"] ;
4 -> 20 ;
21 [label="crl.tot <= 26.5\ngini = 0.109\nsamples = 328\nvalue = [309, 19]\nclass = 1", fillcolor="#e78945"] ;
20 -> 21 ;
22 [label="crl.tot <= 21.5\ngini = 0.104\nsamples = 309\nvalue = [292, 17]\nclass = 1", fillcolor="#e78845"] ;
21 -> 22 ;
23 [label="crl.tot <= 18.5\ngini = 0.117\nsamples = 240\nvalue = [225, 15]\nclass = 1", fillcolor="#e78946"] ;
22 -> 23 ;
24 [label="crl.tot <= 17.5\ngini = 0.098\nsamples = 193\nvalue = [183, 10]\nclass = 1", fillcolor="#e68844"] ;
23 -> 24 ;
25 [label="gini = 0.105\nsamples = 179\nvalue = [169, 10]\nclass = 1", fillcolor="#e78845"] ;
24 -> 25 ;
26 [label="gini = 0.0\nsamples = 14\nvalue = [14, 0]\nclass = 1", fillcolor="#e58139"] ;
24 -> 26 ;
27 [label="crl.tot <= 19.5\ngini = 0.19\nsamples = 47\nvalue = [42, 5]\nclass = 1", fillcolor="#e89051"] ;
23 -> 27 ;
28 [label="gini = 0.278\nsamples = 18\nvalue = [15, 3]\nclass = 1", fillcolor="#ea9a61"] ;
27 -> 28 ;
29 [label="gini = 0.128\nsamples = 29\nvalue = [27, 2]\nclass = 1", fillcolor="#e78a48"] ;
27 -> 29 ;
30 [label="crl.tot <= 23.5\ngini = 0.056\nsamples = 69\nvalue = [67, 2]\nclass = 1", fillcolor="#e6853f"] ;
22 -> 30 ;
31 [label="gini = 0.0\nsamples = 19\nvalue = [19, 0]\nclass = 1", fillcolor="#e58139"] ;
30 -> 31 ;
32 [label="crl.tot <= 24.5\ngini = 0.077\nsamples = 50\nvalue = [48, 2]\nclass = 1", fillcolor="#e68641"] ;
30 -> 32 ;
33 [label="gini = 0.105\nsamples = 18\nvalue = [17, 1]\nclass = 1", fillcolor="#e78845"] ;
32 -> 33 ;
34 [label="gini = 0.061\nsamples = 32\nvalue = [31, 1]\nclass = 1", fillcolor="#e6853f"] ;
32 -> 34 ;
35 [label="crl.tot <= 27.5\ngini = 0.188\nsamples = 19\nvalue = [17, 2]\nclass = 1", fillcolor="#e89050"] ;
21 -> 35 ;
36 [label="gini = 0.198\nsamples = 9\nvalue = [8, 1]\nclass = 1", fillcolor="#e89152"] ;
35 -> 36 ;
37 [label="gini = 0.18\nsamples = 10\nvalue = [9, 1]\nclass = 1", fillcolor="#e88f4f"] ;
35 -> 37 ;
38 [label="gini = 0.0\nsamples = 13\nvalue = [13, 0]\nclass = 1", fillcolor="#e58139"] ;
20 -> 38 ;
39 [label="n000 <= 0.115\ngini = 0.216\nsamples = 1226\nvalue = [1075, 151]\nclass = 1", fillcolor="#e99355"] ;
3 -> 39 ;
40 [label="make <= 0.005\ngini = 0.205\nsamples = 1199\nvalue = [1060, 139]\nclass = 1", fillcolor="#e89253"] ;
39 -> 40 ;
41 [label="crl.tot <= 98.5\ngini = 0.23\nsamples = 967\nvalue = [839, 128]\nclass = 1", fillcolor="#e99457"] ;
40 -> 41 ;
42 [label="dollar <= 0.046\ngini = 0.184\nsamples = 487\nvalue = [437, 50]\nclass = 1", fillcolor="#e88f50"] ;
41 -> 42 ;
43 [label="crl.tot <= 87.5\ngini = 0.182\nsamples = 485\nvalue = [436, 49]\nclass = 1", fillcolor="#e88f4f"] ;
42 -> 43 ;
44 [label="crl.tot <= 82.5\ngini = 0.197\nsamples = 433\nvalue = [385, 48]\nclass = 1", fillcolor="#e89152"] ;
43 -> 44 ;
45 [label="gini = 0.189\nsamples = 417\nvalue = [373, 44]\nclass = 1", fillcolor="#e89050"] ;
44 -> 45 ;
46 [label="gini = 0.375\nsamples = 16\nvalue = [12, 4]\nclass = 1", fillcolor="#eeab7b"] ;
44 -> 46 ;
47 [label="crl.tot <= 94.5\ngini = 0.038\nsamples = 52\nvalue = [51, 1]\nclass = 1", fillcolor="#e6833d"] ;
43 -> 47 ;
48 [label="gini = 0.0\nsamples = 32\nvalue = [32, 0]\nclass = 1", fillcolor="#e58139"] ;
47 -> 48 ;
49 [label="gini = 0.095\nsamples = 20\nvalue = [19, 1]\nclass = 1", fillcolor="#e68843"] ;
47 -> 49 ;
50 [label="crl.tot <= 96.5\ngini = 0.5\nsamples = 2\nvalue = [1, 1]\nclass = 1", fillcolor="#ffffff"] ;
42 -> 50 ;
51 [label="gini = 0.0\nsamples = 1\nvalue = [0, 1]\nclass = 1", fillcolor="#399de5"] ;
50 -> 51 ;
52 [label="gini = 0.0\nsamples = 1\nvalue = [1, 0]\nclass = 1", fillcolor="#e58139"] ;
50 -> 52 ;
53 [label="crl.tot <= 126.5\ngini = 0.272\nsamples = 480\nvalue = [402, 78]\nclass = 1", fillcolor="#ea995f"] ;
41 -> 53 ;
54 [label="bang <= 0.076\ngini = 0.366\nsamples = 108\nvalue = [82, 26]\nclass = 1", fillcolor="#eda978"] ;
53 -> 54 ;
55 [label="crl.tot <= 124.5\ngini = 0.342\nsamples = 105\nvalue = [82, 23]\nclass = 1", fillcolor="#eca471"] ;
54 -> 55 ;
56 [label="gini = 0.32\nsamples = 100\nvalue = [80, 20]\nclass = 1", fillcolor="#eca06a"] ;
55 -> 56 ;
57 [label="gini = 0.48\nsamples = 5\nvalue = [2, 3]\nclass = 1", fillcolor="#bddef6"] ;
55 -> 57 ;
58 [label="gini = 0.0\nsamples = 3\nvalue = [0, 3]\nclass = 1", fillcolor="#399de5"] ;
54 -> 58 ;
59 [label="dollar <= 0.028\ngini = 0.24\nsamples = 372\nvalue = [320, 52]\nclass = 1", fillcolor="#e99559"] ;
53 -> 59 ;
60 [label="crl.tot <= 2590.5\ngini = 0.228\nsamples = 350\nvalue = [304, 46]\nclass = 1", fillcolor="#e99457"] ;
59 -> 60 ;
61 [label="gini = 0.225\nsamples = 348\nvalue = [303, 45]\nclass = 1", fillcolor="#e99456"] ;
60 -> 61 ;
62 [label="gini = 0.5\nsamples = 2\nvalue = [1, 1]\nclass = 1", fillcolor="#ffffff"] ;
60 -> 62 ;
63 [label="dollar <= 0.03\ngini = 0.397\nsamples = 22\nvalue = [16, 6]\nclass = 1", fillcolor="#efb083"] ;
59 -> 63 ;
64 [label="gini = 0.0\nsamples = 1\nvalue = [0, 1]\nclass = 1", fillcolor="#399de5"] ;
63 -> 64 ;
65 [label="gini = 0.363\nsamples = 21\nvalue = [16, 5]\nclass = 1", fillcolor="#eda877"] ;
63 -> 65 ;
66 [label="dollar <= 0.04\ngini = 0.09\nsamples = 232\nvalue = [221, 11]\nclass = 1", fillcolor="#e68743"] ;
40 -> 66 ;
67 [label="bang <= 0.045\ngini = 0.068\nsamples = 226\nvalue = [218, 8]\nclass = 1", fillcolor="#e68640"] ;
66 -> 67 ;
68 [label="make <= 0.265\ngini = 0.04\nsamples = 198\nvalue = [194, 4]\nclass = 1", fillcolor="#e6843d"] ;
67 -> 68 ;
69 [label="gini = 0.0\nsamples = 105\nvalue = [105, 0]\nclass = 1", fillcolor="#e58139"] ;
68 -> 69 ;
70 [label="make <= 0.295\ngini = 0.082\nsamples = 93\nvalue = [89, 4]\nclass = 1", fillcolor="#e68742"] ;
68 -> 70 ;
71 [label="gini = 0.444\nsamples = 6\nvalue = [4, 2]\nclass = 1", fillcolor="#f2c09c"] ;
70 -> 71 ;
72 [label="gini = 0.045\nsamples = 87\nvalue = [85, 2]\nclass = 1", fillcolor="#e6843e"] ;
70 -> 72 ;
73 [label="bang <= 0.046\ngini = 0.245\nsamples = 28\nvalue = [24, 4]\nclass = 1", fillcolor="#e9965a"] ;
67 -> 73 ;
74 [label="gini = 0.0\nsamples = 1\nvalue = [0, 1]\nclass = 1", fillcolor="#399de5"] ;
73 -> 74 ;
75 [label="crl.tot <= 111.0\ngini = 0.198\nsamples = 27\nvalue = [24, 3]\nclass = 1", fillcolor="#e89152"] ;
73 -> 75 ;
76 [label="gini = 0.397\nsamples = 11\nvalue = [8, 3]\nclass = 1", fillcolor="#efb083"] ;
75 -> 76 ;
77 [label="gini = 0.0\nsamples = 16\nvalue = [16, 0]\nclass = 1", fillcolor="#e58139"] ;
75 -> 77 ;
78 [label="make <= 0.11\ngini = 0.5\nsamples = 6\nvalue = [3, 3]\nclass = 1", fillcolor="#ffffff"] ;
66 -> 78 ;
79 [label="gini = 0.0\nsamples = 3\nvalue = [3, 0]\nclass = 1", fillcolor="#e58139"] ;
78 -> 79 ;
80 [label="gini = 0.0\nsamples = 3\nvalue = [0, 3]\nclass = 1", fillcolor="#399de5"] ;
78 -> 80 ;
81 [label="crl.tot <= 365.0\ngini = 0.494\nsamples = 27\nvalue = [15, 12]\nclass = 1", fillcolor="#fae6d7"] ;
39 -> 81 ;
82 [label="n000 <= 0.615\ngini = 0.43\nsamples = 16\nvalue = [5, 11]\nclass = 1", fillcolor="#93caf1"] ;
81 -> 82 ;
83 [label="bang <= 0.056\ngini = 0.26\nsamples = 13\nvalue = [2, 11]\nclass = 1", fillcolor="#5dafea"] ;
82 -> 83 ;
84 [label="crl.tot <= 205.5\ngini = 0.153\nsamples = 12\nvalue = [1, 11]\nclass = 1", fillcolor="#4ba6e7"] ;
83 -> 84 ;
85 [label="gini = 0.0\nsamples = 9\nvalue = [0, 9]\nclass = 1", fillcolor="#399de5"] ;
84 -> 85 ;
86 [label="dollar <= 0.011\ngini = 0.444\nsamples = 3\nvalue = [1, 2]\nclass = 1", fillcolor="#9ccef2"] ;
84 -> 86 ;
87 [label="gini = 0.0\nsamples = 1\nvalue = [1, 0]\nclass = 1", fillcolor="#e58139"] ;
86 -> 87 ;
88 [label="gini = 0.0\nsamples = 2\nvalue = [0, 2]\nclass = 1", fillcolor="#399de5"] ;
86 -> 88 ;
89 [label="gini = 0.0\nsamples = 1\nvalue = [1, 0]\nclass = 1", fillcolor="#e58139"] ;
83 -> 89 ;
90 [label="gini = 0.0\nsamples = 3\nvalue = [3, 0]\nclass = 1", fillcolor="#e58139"] ;
82 -> 90 ;
91 [label="crl.tot <= 2029.0\ngini = 0.165\nsamples = 11\nvalue = [10, 1]\nclass = 1", fillcolor="#e88e4d"] ;
81 -> 91 ;
92 [label="gini = 0.0\nsamples = 10\nvalue = [10, 0]\nclass = 1", fillcolor="#e58139"] ;
91 -> 92 ;
93 [label="gini = 0.0\nsamples = 1\nvalue = [0, 1]\nclass = 1", fillcolor="#399de5"] ;
91 -> 93 ;
94 [label="bang <= 0.019\ngini = 0.5\nsamples = 47\nvalue = [24, 23]\nclass = 1", fillcolor="#fefaf7"] ;
2 -> 94 ;
95 [label="money <= 1.805\ngini = 0.459\nsamples = 28\nvalue = [18, 10]\nclass = 1", fillcolor="#f3c7a7"] ;
94 -> 95 ;
96 [label="dollar <= 0.019\ngini = 0.363\nsamples = 21\nvalue = [16, 5]\nclass = 1", fillcolor="#eda877"] ;
95 -> 96 ;
97 [label="money <= 1.365\ngini = 0.266\nsamples = 19\nvalue = [16, 3]\nclass = 1", fillcolor="#ea995e"] ;
96 -> 97 ;
98 [label="crl.tot <= 933.0\ngini = 0.142\nsamples = 13\nvalue = [12, 1]\nclass = 1", fillcolor="#e78c49"] ;
97 -> 98 ;
99 [label="gini = 0.0\nsamples = 10\nvalue = [10, 0]\nclass = 1", fillcolor="#e58139"] ;
98 -> 99 ;
100 [label="crl.tot <= 1458.0\ngini = 0.444\nsamples = 3\nvalue = [2, 1]\nclass = 1", fillcolor="#f2c09c"] ;
98 -> 100 ;
101 [label="gini = 0.0\nsamples = 1\nvalue = [0, 1]\nclass = 1", fillcolor="#399de5"] ;
100 -> 101 ;
102 [label="gini = 0.0\nsamples = 2\nvalue = [2, 0]\nclass = 1", fillcolor="#e58139"] ;
100 -> 102 ;
103 [label="money <= 1.535\ngini = 0.444\nsamples = 6\nvalue = [4, 2]\nclass = 1", fillcolor="#f2c09c"] ;
97 -> 103 ;
104 [label="gini = 0.0\nsamples = 2\nvalue = [0, 2]\nclass = 1", fillcolor="#399de5"] ;
103 -> 104 ;
105 [label="gini = 0.0\nsamples = 4\nvalue = [4, 0]\nclass = 1", fillcolor="#e58139"] ;
103 -> 105 ;
106 [label="gini = 0.0\nsamples = 2\nvalue = [0, 2]\nclass = 1", fillcolor="#399de5"] ;
96 -> 106 ;
107 [label="money <= 5.705\ngini = 0.408\nsamples = 7\nvalue = [2, 5]\nclass = 1", fillcolor="#88c4ef"] ;
95 -> 107 ;
108 [label="gini = 0.0\nsamples = 4\nvalue = [0, 4]\nclass = 1", fillcolor="#399de5"] ;
107 -> 108 ;
109 [label="crl.tot <= 4.5\ngini = 0.444\nsamples = 3\nvalue = [2, 1]\nclass = 1", fillcolor="#f2c09c"] ;
107 -> 109 ;
110 [label="gini = 0.0\nsamples = 1\nvalue = [0, 1]\nclass = 1", fillcolor="#399de5"] ;
109 -> 110 ;
111 [label="gini = 0.0\nsamples = 2\nvalue = [2, 0]\nclass = 1", fillcolor="#e58139"] ;
109 -> 111 ;
112 [label="dollar <= 0.024\ngini = 0.432\nsamples = 19\nvalue = [6, 13]\nclass = 1", fillcolor="#94caf1"] ;
94 -> 112 ;
113 [label="crl.tot <= 183.0\ngini = 0.153\nsamples = 12\nvalue = [1, 11]\nclass = 1", fillcolor="#4ba6e7"] ;
112 -> 113 ;
114 [label="bang <= 0.059\ngini = 0.375\nsamples = 4\nvalue = [1, 3]\nclass = 1", fillcolor="#7bbeee"] ;
113 -> 114 ;
115 [label="gini = 0.0\nsamples = 1\nvalue = [1, 0]\nclass = 1", fillcolor="#e58139"] ;
114 -> 115 ;
116 [label="gini = 0.0\nsamples = 3\nvalue = [0, 3]\nclass = 1", fillcolor="#399de5"] ;
114 -> 116 ;
117 [label="gini = 0.0\nsamples = 8\nvalue = [0, 8]\nclass = 1", fillcolor="#399de5"] ;
113 -> 117 ;
118 [label="crl.tot <= 373.0\ngini = 0.408\nsamples = 7\nvalue = [5, 2]\nclass = 1", fillcolor="#efb388"] ;
112 -> 118 ;
119 [label="gini = 0.0\nsamples = 2\nvalue = [0, 2]\nclass = 1", fillcolor="#399de5"] ;
118 -> 119 ;
120 [label="gini = 0.0\nsamples = 5\nvalue = [5, 0]\nclass = 1", fillcolor="#e58139"] ;
118 -> 120 ;
121 [label="crl.tot <= 85.5\ngini = 0.497\nsamples = 833\nvalue = [384, 449]\nclass = 1", fillcolor="#e2f1fb"] ;
1 -> 121 ;
122 [label="bang <= 0.805\ngini = 0.443\nsamples = 425\nvalue = [284, 141]\nclass = 1", fillcolor="#f2c09b"] ;
121 -> 122 ;
123 [label="crl.tot <= 41.5\ngini = 0.384\nsamples = 336\nvalue = [249, 87]\nclass = 1", fillcolor="#eead7e"] ;
122 -> 123 ;
124 [label="money <= 3.91\ngini = 0.264\nsamples = 160\nvalue = [135, 25]\nclass = 1", fillcolor="#ea985e"] ;
123 -> 124 ;
125 [label="bang <= 0.669\ngini = 0.249\nsamples = 158\nvalue = [135, 23]\nclass = 1", fillcolor="#e9965b"] ;
124 -> 125 ;
126 [label="crl.tot <= 26.5\ngini = 0.214\nsamples = 131\nvalue = [115, 16]\nclass = 1", fillcolor="#e99355"] ;
125 -> 126 ;
127 [label="crl.tot <= 19.5\ngini = 0.305\nsamples = 64\nvalue = [52, 12]\nclass = 1", fillcolor="#eb9e67"] ;
126 -> 127 ;
128 [label="bang <= 0.309\ngini = 0.161\nsamples = 34\nvalue = [31, 3]\nclass = 1", fillcolor="#e88d4c"] ;
127 -> 128 ;
129 [label="gini = 0.0\nsamples = 10\nvalue = [10, 0]\nclass = 1", fillcolor="#e58139"] ;
128 -> 129 ;
130 [label="gini = 0.219\nsamples = 24\nvalue = [21, 3]\nclass = 1", fillcolor="#e99355"] ;
128 -> 130 ;
131 [label="crl.tot <= 21.5\ngini = 0.42\nsamples = 30\nvalue = [21, 9]\nclass = 1", fillcolor="#f0b78e"] ;
127 -> 131 ;
132 [label="gini = 0.49\nsamples = 7\nvalue = [3, 4]\nclass = 1", fillcolor="#cee6f8"] ;
131 -> 132 ;
133 [label="gini = 0.34\nsamples = 23\nvalue = [18, 5]\nclass = 1", fillcolor="#eca470"] ;
131 -> 133 ;
134 [label="bang <= 0.203\ngini = 0.112\nsamples = 67\nvalue = [63, 4]\nclass = 1", fillcolor="#e78946"] ;
126 -> 134 ;
135 [label="bang <= 0.19\ngini = 0.305\nsamples = 16\nvalue = [13, 3]\nclass = 1", fillcolor="#eb9e67"] ;
134 -> 135 ;
136 [label="gini = 0.133\nsamples = 14\nvalue = [13, 1]\nclass = 1", fillcolor="#e78b48"] ;
135 -> 136 ;
137 [label="gini = 0.0\nsamples = 2\nvalue = [0, 2]\nclass = 1", fillcolor="#399de5"] ;
135 -> 137 ;
138 [label="bang <= 0.31\ngini = 0.038\nsamples = 51\nvalue = [50, 1]\nclass = 1", fillcolor="#e6843d"] ;
134 -> 138 ;
139 [label="gini = 0.087\nsamples = 22\nvalue = [21, 1]\nclass = 1", fillcolor="#e68742"] ;
138 -> 139 ;
140 [label="gini = 0.0\nsamples = 29\nvalue = [29, 0]\nclass = 1", fillcolor="#e58139"] ;
138 -> 140 ;
141 [label="crl.tot <= 25.5\ngini = 0.384\nsamples = 27\nvalue = [20, 7]\nclass = 1", fillcolor="#eead7e"] ;
125 -> 141 ;
142 [label="crl.tot <= 22.5\ngini = 0.172\nsamples = 21\nvalue = [19, 2]\nclass = 1", fillcolor="#e88e4e"] ;
141 -> 142 ;
143 [label="crl.tot <= 14.0\ngini = 0.105\nsamples = 18\nvalue = [17, 1]\nclass = 1", fillcolor="#e78845"] ;
142 -> 143 ;
144 [label="gini = 0.245\nsamples = 7\nvalue = [6, 1]\nclass = 1", fillcolor="#e9965a"] ;
143 -> 144 ;
145 [label="gini = 0.0\nsamples = 11\nvalue = [11, 0]\nclass = 1", fillcolor="#e58139"] ;
143 -> 145 ;
146 [label="bang <= 0.719\ngini = 0.444\nsamples = 3\nvalue = [2, 1]\nclass = 1", fillcolor="#f2c09c"] ;
142 -> 146 ;
147 [label="gini = 0.0\nsamples = 2\nvalue = [2, 0]\nclass = 1", fillcolor="#e58139"] ;
146 -> 147 ;
148 [label="gini = 0.0\nsamples = 1\nvalue = [0, 1]\nclass = 1", fillcolor="#399de5"] ;
146 -> 148 ;
149 [label="bang <= 0.69\ngini = 0.278\nsamples = 6\nvalue = [1, 5]\nclass = 1", fillcolor="#61b1ea"] ;
141 -> 149 ;
150 [label="bang <= 0.678\ngini = 0.444\nsamples = 3\nvalue = [1, 2]\nclass = 1", fillcolor="#9ccef2"] ;
149 -> 150 ;
151 [label="gini = 0.0\nsamples = 2\nvalue = [0, 2]\nclass = 1", fillcolor="#399de5"] ;
150 -> 151 ;
152 [label="gini = 0.0\nsamples = 1\nvalue = [1, 0]\nclass = 1", fillcolor="#e58139"] ;
150 -> 152 ;
153 [label="gini = 0.0\nsamples = 3\nvalue = [0, 3]\nclass = 1", fillcolor="#399de5"] ;
149 -> 153 ;
154 [label="gini = 0.0\nsamples = 2\nvalue = [0, 2]\nclass = 1", fillcolor="#399de5"] ;
124 -> 154 ;
155 [label="bang <= 0.266\ngini = 0.456\nsamples = 176\nvalue = [114, 62]\nclass = 1", fillcolor="#f3c6a5"] ;
123 -> 155 ;
156 [label="crl.tot <= 42.5\ngini = 0.309\nsamples = 89\nvalue = [72, 17]\nclass = 1", fillcolor="#eb9f68"] ;
155 -> 156 ;
157 [label="gini = 0.0\nsamples = 1\nvalue = [0, 1]\nclass = 1", fillcolor="#399de5"] ;
156 -> 157 ;
158 [label="bang <= 0.17\ngini = 0.298\nsamples = 88\nvalue = [72, 16]\nclass = 1", fillcolor="#eb9d65"] ;
156 -> 158 ;
159 [label="bang <= 0.119\ngini = 0.165\nsamples = 44\nvalue = [40, 4]\nclass = 1", fillcolor="#e88e4d"] ;
158 -> 159 ;
160 [label="bang <= 0.117\ngini = 0.332\nsamples = 19\nvalue = [15, 4]\nclass = 1", fillcolor="#eca36e"] ;
159 -> 160 ;
161 [label="gini = 0.278\nsamples = 18\nvalue = [15, 3]\nclass = 1", fillcolor="#ea9a61"] ;
160 -> 161 ;
162 [label="gini = 0.0\nsamples = 1\nvalue = [0, 1]\nclass = 1", fillcolor="#399de5"] ;
160 -> 162 ;
163 [label="gini = 0.0\nsamples = 25\nvalue = [25, 0]\nclass = 1", fillcolor="#e58139"] ;
159 -> 163 ;
164 [label="bang <= 0.225\ngini = 0.397\nsamples = 44\nvalue = [32, 12]\nclass = 1", fillcolor="#efb083"] ;
158 -> 164 ;
165 [label="make <= 0.41\ngini = 0.48\nsamples = 25\nvalue = [15, 10]\nclass = 1", fillcolor="#f6d5bd"] ;
164 -> 165 ;
166 [label="gini = 0.5\nsamples = 20\nvalue = [10, 10]\nclass = 1", fillcolor="#ffffff"] ;
165 -> 166 ;
167 [label="gini = 0.0\nsamples = 5\nvalue = [5, 0]\nclass = 1", fillcolor="#e58139"] ;
165 -> 167 ;
168 [label="make <= 1.51\ngini = 0.188\nsamples = 19\nvalue = [17, 2]\nclass = 1", fillcolor="#e89050"] ;
164 -> 168 ;
169 [label="gini = 0.105\nsamples = 18\nvalue = [17, 1]\nclass = 1", fillcolor="#e78845"] ;
168 -> 169 ;
170 [label="gini = 0.0\nsamples = 1\nvalue = [0, 1]\nclass = 1", fillcolor="#399de5"] ;
168 -> 170 ;
171 [label="bang <= 0.514\ngini = 0.499\nsamples = 87\nvalue = [42, 45]\nclass = 1", fillcolor="#f2f8fd"] ;
155 -> 171 ;
172 [label="crl.tot <= 80.5\ngini = 0.494\nsamples = 65\nvalue = [36, 29]\nclass = 1", fillcolor="#fae7d9"] ;
171 -> 172 ;
173 [label="crl.tot <= 78.5\ngini = 0.486\nsamples = 60\nvalue = [35, 25]\nclass = 1", fillcolor="#f8dbc6"] ;
172 -> 173 ;
174 [label="money <= 0.98\ngini = 0.494\nsamples = 56\nvalue = [31, 25]\nclass = 1", fillcolor="#fae7d9"] ;
173 -> 174 ;
175 [label="gini = 0.489\nsamples = 54\nvalue = [31, 23]\nclass = 1", fillcolor="#f8decc"] ;
174 -> 175 ;
176 [label="gini = 0.0\nsamples = 2\nvalue = [0, 2]\nclass = 1", fillcolor="#399de5"] ;
174 -> 176 ;
177 [label="gini = 0.0\nsamples = 4\nvalue = [4, 0]\nclass = 1", fillcolor="#e58139"] ;
173 -> 177 ;
178 [label="make <= 0.34\ngini = 0.32\nsamples = 5\nvalue = [1, 4]\nclass = 1", fillcolor="#6ab6ec"] ;
172 -> 178 ;
179 [label="gini = 0.0\nsamples = 4\nvalue = [0, 4]\nclass = 1", fillcolor="#399de5"] ;
178 -> 179 ;
180 [label="gini = 0.0\nsamples = 1\nvalue = [1, 0]\nclass = 1", fillcolor="#e58139"] ;
178 -> 180 ;
181 [label="crl.tot <= 81.0\ngini = 0.397\nsamples = 22\nvalue = [6, 16]\nclass = 1", fillcolor="#83c2ef"] ;
171 -> 181 ;
182 [label="crl.tot <= 73.5\ngini = 0.363\nsamples = 21\nvalue = [5, 16]\nclass = 1", fillcolor="#77bced"] ;
181 -> 182 ;
183 [label="bang <= 0.547\ngini = 0.459\nsamples = 14\nvalue = [5, 9]\nclass = 1", fillcolor="#a7d3f3"] ;
182 -> 183 ;
184 [label="gini = 0.0\nsamples = 4\nvalue = [0, 4]\nclass = 1", fillcolor="#399de5"] ;
183 -> 184 ;
185 [label="gini = 0.5\nsamples = 10\nvalue = [5, 5]\nclass = 1", fillcolor="#ffffff"] ;
183 -> 185 ;
186 [label="gini = 0.0\nsamples = 7\nvalue = [0, 7]\nclass = 1", fillcolor="#399de5"] ;
182 -> 186 ;
187 [label="gini = 0.0\nsamples = 1\nvalue = [1, 0]\nclass = 1", fillcolor="#e58139"] ;
181 -> 187 ;
188 [label="crl.tot <= 14.5\ngini = 0.477\nsamples = 89\nvalue = [35, 54]\nclass = 1", fillcolor="#b9ddf6"] ;
122 -> 188 ;
189 [label="crl.tot <= 2.5\ngini = 0.375\nsamples = 24\nvalue = [18, 6]\nclass = 1", fillcolor="#eeab7b"] ;
188 -> 189 ;
190 [label="gini = 0.0\nsamples = 2\nvalue = [0, 2]\nclass = 1", fillcolor="#399de5"] ;
189 -> 190 ;
191 [label="bang <= 0.898\ngini = 0.298\nsamples = 22\nvalue = [18, 4]\nclass = 1", fillcolor="#eb9d65"] ;
189 -> 191 ;
192 [label="crl.tot <= 7.0\ngini = 0.444\nsamples = 3\nvalue = [1, 2]\nclass = 1", fillcolor="#9ccef2"] ;
191 -> 192 ;
193 [label="gini = 0.0\nsamples = 1\nvalue = [1, 0]\nclass = 1", fillcolor="#e58139"] ;
192 -> 193 ;
194 [label="gini = 0.0\nsamples = 2\nvalue = [0, 2]\nclass = 1", fillcolor="#399de5"] ;
192 -> 194 ;
195 [label="bang <= 1.596\ngini = 0.188\nsamples = 19\nvalue = [17, 2]\nclass = 1", fillcolor="#e89050"] ;
191 -> 195 ;
196 [label="gini = 0.0\nsamples = 10\nvalue = [10, 0]\nclass = 1", fillcolor="#e58139"] ;
195 -> 196 ;
197 [label="bang <= 1.82\ngini = 0.346\nsamples = 9\nvalue = [7, 2]\nclass = 1", fillcolor="#eca572"] ;
195 -> 197 ;
198 [label="gini = 0.0\nsamples = 1\nvalue = [0, 1]\nclass = 1", fillcolor="#399de5"] ;
197 -> 198 ;
199 [label="bang <= 3.959\ngini = 0.219\nsamples = 8\nvalue = [7, 1]\nclass = 1", fillcolor="#e99355"] ;
197 -> 199 ;
200 [label="gini = 0.0\nsamples = 5\nvalue = [5, 0]\nclass = 1", fillcolor="#e58139"] ;
199 -> 200 ;
201 [label="gini = 0.444\nsamples = 3\nvalue = [2, 1]\nclass = 1", fillcolor="#f2c09c"] ;
199 -> 201 ;
202 [label="bang <= 4.893\ngini = 0.386\nsamples = 65\nvalue = [17, 48]\nclass = 1", fillcolor="#7fc0ee"] ;
188 -> 202 ;
203 [label="crl.tot <= 32.5\ngini = 0.332\nsamples = 57\nvalue = [12, 45]\nclass = 1", fillcolor="#6eb7ec"] ;
202 -> 203 ;
204 [label="bang <= 1.259\ngini = 0.494\nsamples = 18\nvalue = [8, 10]\nclass = 1", fillcolor="#d7ebfa"] ;
203 -> 204 ;
205 [label="bang <= 1.117\ngini = 0.463\nsamples = 11\nvalue = [7, 4]\nclass = 1", fillcolor="#f4c9aa"] ;
204 -> 205 ;
206 [label="bang <= 1.001\ngini = 0.49\nsamples = 7\nvalue = [3, 4]\nclass = 1", fillcolor="#cee6f8"] ;
205 -> 206 ;
207 [label="gini = 0.375\nsamples = 4\nvalue = [3, 1]\nclass = 1", fillcolor="#eeab7b"] ;
206 -> 207 ;
208 [label="gini = 0.0\nsamples = 3\nvalue = [0, 3]\nclass = 1", fillcolor="#399de5"] ;
206 -> 208 ;
209 [label="gini = 0.0\nsamples = 4\nvalue = [4, 0]\nclass = 1", fillcolor="#e58139"] ;
205 -> 209 ;
210 [label="crl.tot <= 22.5\ngini = 0.245\nsamples = 7\nvalue = [1, 6]\nclass = 1", fillcolor="#5aade9"] ;
204 -> 210 ;
211 [label="bang <= 2.737\ngini = 0.444\nsamples = 3\nvalue = [1, 2]\nclass = 1", fillcolor="#9ccef2"] ;
210 -> 211 ;
212 [label="gini = 0.0\nsamples = 2\nvalue = [0, 2]\nclass = 1", fillcolor="#399de5"] ;
211 -> 212 ;
213 [label="gini = 0.0\nsamples = 1\nvalue = [1, 0]\nclass = 1", fillcolor="#e58139"] ;
211 -> 213 ;
214 [label="gini = 0.0\nsamples = 4\nvalue = [0, 4]\nclass = 1", fillcolor="#399de5"] ;
210 -> 214 ;
215 [label="bang <= 0.958\ngini = 0.184\nsamples = 39\nvalue = [4, 35]\nclass = 1", fillcolor="#50a8e8"] ;
203 -> 215 ;
216 [label="crl.tot <= 72.5\ngini = 0.397\nsamples = 11\nvalue = [3, 8]\nclass = 1", fillcolor="#83c2ef"] ;
215 -> 216 ;
217 [label="bang <= 0.851\ngini = 0.219\nsamples = 8\nvalue = [1, 7]\nclass = 1", fillcolor="#55abe9"] ;
216 -> 217 ;
218 [label="gini = 0.444\nsamples = 3\nvalue = [1, 2]\nclass = 1", fillcolor="#9ccef2"] ;
217 -> 218 ;
219 [label="gini = 0.0\nsamples = 5\nvalue = [0, 5]\nclass = 1", fillcolor="#399de5"] ;
217 -> 219 ;
220 [label="crl.tot <= 79.0\ngini = 0.444\nsamples = 3\nvalue = [2, 1]\nclass = 1", fillcolor="#f2c09c"] ;
216 -> 220 ;
221 [label="gini = 0.0\nsamples = 2\nvalue = [2, 0]\nclass = 1", fillcolor="#e58139"] ;
220 -> 221 ;
222 [label="gini = 0.0\nsamples = 1\nvalue = [0, 1]\nclass = 1", fillcolor="#399de5"] ;
220 -> 222 ;
223 [label="bang <= 1.549\ngini = 0.069\nsamples = 28\nvalue = [1, 27]\nclass = 1", fillcolor="#40a1e6"] ;
215 -> 223 ;
224 [label="bang <= 1.539\ngini = 0.153\nsamples = 12\nvalue = [1, 11]\nclass = 1", fillcolor="#4ba6e7"] ;
223 -> 224 ;
225 [label="gini = 0.0\nsamples = 11\nvalue = [0, 11]\nclass = 1", fillcolor="#399de5"] ;
224 -> 225 ;
226 [label="gini = 0.0\nsamples = 1\nvalue = [1, 0]\nclass = 1", fillcolor="#e58139"] ;
224 -> 226 ;
227 [label="gini = 0.0\nsamples = 16\nvalue = [0, 16]\nclass = 1", fillcolor="#399de5"] ;
223 -> 227 ;
228 [label="crl.tot <= 29.0\ngini = 0.469\nsamples = 8\nvalue = [5, 3]\nclass = 1", fillcolor="#f5cdb0"] ;
202 -> 228 ;
229 [label="gini = 0.0\nsamples = 3\nvalue = [0, 3]\nclass = 1", fillcolor="#399de5"] ;
228 -> 229 ;
230 [label="gini = 0.0\nsamples = 5\nvalue = [5, 0]\nclass = 1", fillcolor="#e58139"] ;
228 -> 230 ;
231 [label="bang <= 0.377\ngini = 0.37\nsamples = 408\nvalue = [100, 308]\nclass = 1", fillcolor="#79bded"] ;
121 -> 231 ;
232 [label="money <= 0.04\ngini = 0.482\nsamples = 210\nvalue = [85, 125]\nclass = 1", fillcolor="#c0e0f7"] ;
231 -> 232 ;
233 [label="crl.tot <= 336.5\ngini = 0.496\nsamples = 155\nvalue = [84, 71]\nclass = 1", fillcolor="#fbebe0"] ;
232 -> 233 ;
234 [label="n000 <= 0.155\ngini = 0.471\nsamples = 121\nvalue = [75, 46]\nclass = 1", fillcolor="#f5ceb2"] ;
233 -> 234 ;
235 [label="bang <= 0.12\ngini = 0.45\nsamples = 114\nvalue = [75, 39]\nclass = 1", fillcolor="#f3c3a0"] ;
234 -> 235 ;
236 [label="crl.tot <= 86.5\ngini = 0.159\nsamples = 23\nvalue = [21, 2]\nclass = 1", fillcolor="#e78d4c"] ;
235 -> 236 ;
237 [label="gini = 0.0\nsamples = 1\nvalue = [0, 1]\nclass = 1", fillcolor="#399de5"] ;
236 -> 237 ;
238 [label="bang <= 0.109\ngini = 0.087\nsamples = 22\nvalue = [21, 1]\nclass = 1", fillcolor="#e68742"] ;
236 -> 238 ;
239 [label="gini = 0.0\nsamples = 14\nvalue = [14, 0]\nclass = 1", fillcolor="#e58139"] ;
238 -> 239 ;
240 [label="gini = 0.219\nsamples = 8\nvalue = [7, 1]\nclass = 1", fillcolor="#e99355"] ;
238 -> 240 ;
241 [label="bang <= 0.122\ngini = 0.483\nsamples = 91\nvalue = [54, 37]\nclass = 1", fillcolor="#f7d7c1"] ;
235 -> 241 ;
242 [label="gini = 0.0\nsamples = 2\nvalue = [0, 2]\nclass = 1", fillcolor="#399de5"] ;
241 -> 242 ;
243 [label="crl.tot <= 92.5\ngini = 0.477\nsamples = 89\nvalue = [54, 35]\nclass = 1", fillcolor="#f6d3b9"] ;
241 -> 243 ;
244 [label="gini = 0.0\nsamples = 4\nvalue = [4, 0]\nclass = 1", fillcolor="#e58139"] ;
243 -> 244 ;
245 [label="gini = 0.484\nsamples = 85\nvalue = [50, 35]\nclass = 1", fillcolor="#f7d9c4"] ;
243 -> 245 ;
246 [label="gini = 0.0\nsamples = 7\nvalue = [0, 7]\nclass = 1", fillcolor="#399de5"] ;
234 -> 246 ;
247 [label="bang <= 0.164\ngini = 0.389\nsamples = 34\nvalue = [9, 25]\nclass = 1", fillcolor="#80c0ee"] ;
233 -> 247 ;
248 [label="bang <= 0.115\ngini = 0.5\nsamples = 12\nvalue = [6, 6]\nclass = 1", fillcolor="#ffffff"] ;
247 -> 248 ;
249 [label="gini = 0.0\nsamples = 4\nvalue = [0, 4]\nclass = 1", fillcolor="#399de5"] ;
248 -> 249 ;
250 [label="make <= 0.49\ngini = 0.375\nsamples = 8\nvalue = [6, 2]\nclass = 1", fillcolor="#eeab7b"] ;
248 -> 250 ;
251 [label="crl.tot <= 619.0\ngini = 0.245\nsamples = 7\nvalue = [6, 1]\nclass = 1", fillcolor="#e9965a"] ;
250 -> 251 ;
252 [label="gini = 0.5\nsamples = 2\nvalue = [1, 1]\nclass = 1", fillcolor="#ffffff"] ;
251 -> 252 ;
253 [label="gini = 0.0\nsamples = 5\nvalue = [5, 0]\nclass = 1", fillcolor="#e58139"] ;
251 -> 253 ;
254 [label="gini = 0.0\nsamples = 1\nvalue = [0, 1]\nclass = 1", fillcolor="#399de5"] ;
250 -> 254 ;
255 [label="bang <= 0.372\ngini = 0.236\nsamples = 22\nvalue = [3, 19]\nclass = 1", fillcolor="#58ace9"] ;
247 -> 255 ;
256 [label="bang <= 0.205\ngini = 0.172\nsamples = 21\nvalue = [2, 19]\nclass = 1", fillcolor="#4ea7e8"] ;
255 -> 256 ;
257 [label="gini = 0.0\nsamples = 9\nvalue = [0, 9]\nclass = 1", fillcolor="#399de5"] ;
256 -> 257 ;
258 [label="bang <= 0.241\ngini = 0.278\nsamples = 12\nvalue = [2, 10]\nclass = 1", fillcolor="#61b1ea"] ;
256 -> 258 ;
259 [label="gini = 0.444\nsamples = 3\nvalue = [2, 1]\nclass = 1", fillcolor="#f2c09c"] ;
258 -> 259 ;
260 [label="gini = 0.0\nsamples = 9\nvalue = [0, 9]\nclass = 1", fillcolor="#399de5"] ;
258 -> 260 ;
261 [label="gini = 0.0\nsamples = 1\nvalue = [1, 0]\nclass = 1", fillcolor="#e58139"] ;
255 -> 261 ;
262 [label="crl.tot <= 89.5\ngini = 0.036\nsamples = 55\nvalue = [1, 54]\nclass = 1", fillcolor="#3d9fe5"] ;
232 -> 262 ;
263 [label="gini = 0.0\nsamples = 1\nvalue = [1, 0]\nclass = 1", fillcolor="#e58139"] ;
262 -> 263 ;
264 [label="gini = 0.0\nsamples = 54\nvalue = [0, 54]\nclass = 1", fillcolor="#399de5"] ;
262 -> 264 ;
265 [label="bang <= 0.563\ngini = 0.14\nsamples = 198\nvalue = [15, 183]\nclass = 1", fillcolor="#49a5e7"] ;
231 -> 265 ;
266 [label="crl.tot <= 173.5\ngini = 0.288\nsamples = 63\nvalue = [11, 52]\nclass = 1", fillcolor="#63b2ea"] ;
265 -> 266 ;
267 [label="make <= 0.065\ngini = 0.469\nsamples = 24\nvalue = [9, 15]\nclass = 1", fillcolor="#b0d8f5"] ;
266 -> 267 ;
268 [label="crl.tot <= 136.5\ngini = 0.388\nsamples = 19\nvalue = [5, 14]\nclass = 1", fillcolor="#80c0ee"] ;
267 -> 268 ;
269 [label="bang <= 0.56\ngini = 0.473\nsamples = 13\nvalue = [5, 8]\nclass = 1", fillcolor="#b5daf5"] ;
268 -> 269 ;
270 [label="bang <= 0.511\ngini = 0.444\nsamples = 12\nvalue = [4, 8]\nclass = 1", fillcolor="#9ccef2"] ;
269 -> 270 ;
271 [label="gini = 0.5\nsamples = 8\nvalue = [4, 4]\nclass = 1", fillcolor="#ffffff"] ;
270 -> 271 ;
272 [label="gini = 0.0\nsamples = 4\nvalue = [0, 4]\nclass = 1", fillcolor="#399de5"] ;
270 -> 272 ;
273 [label="gini = 0.0\nsamples = 1\nvalue = [1, 0]\nclass = 1", fillcolor="#e58139"] ;
269 -> 273 ;
274 [label="gini = 0.0\nsamples = 6\nvalue = [0, 6]\nclass = 1", fillcolor="#399de5"] ;
268 -> 274 ;
275 [label="bang <= 0.405\ngini = 0.32\nsamples = 5\nvalue = [4, 1]\nclass = 1", fillcolor="#eca06a"] ;
267 -> 275 ;
276 [label="gini = 0.0\nsamples = 1\nvalue = [0, 1]\nclass = 1", fillcolor="#399de5"] ;
275 -> 276 ;
277 [label="gini = 0.0\nsamples = 4\nvalue = [4, 0]\nclass = 1", fillcolor="#e58139"] ;
275 -> 277 ;
278 [label="bang <= 0.474\ngini = 0.097\nsamples = 39\nvalue = [2, 37]\nclass = 1", fillcolor="#44a2e6"] ;
266 -> 278 ;
279 [label="bang <= 0.436\ngini = 0.208\nsamples = 17\nvalue = [2, 15]\nclass = 1", fillcolor="#53aae8"] ;
278 -> 279 ;
280 [label="gini = 0.0\nsamples = 13\nvalue = [0, 13]\nclass = 1", fillcolor="#399de5"] ;
279 -> 280 ;
281 [label="bang <= 0.459\ngini = 0.5\nsamples = 4\nvalue = [2, 2]\nclass = 1", fillcolor="#ffffff"] ;
279 -> 281 ;
282 [label="gini = 0.0\nsamples = 1\nvalue = [1, 0]\nclass = 1", fillcolor="#e58139"] ;
281 -> 282 ;
283 [label="crl.tot <= 260.5\ngini = 0.444\nsamples = 3\nvalue = [1, 2]\nclass = 1", fillcolor="#9ccef2"] ;
281 -> 283 ;
284 [label="gini = 0.0\nsamples = 1\nvalue = [0, 1]\nclass = 1", fillcolor="#399de5"] ;
283 -> 284 ;
285 [label="gini = 0.5\nsamples = 2\nvalue = [1, 1]\nclass = 1", fillcolor="#ffffff"] ;
283 -> 285 ;
286 [label="gini = 0.0\nsamples = 22\nvalue = [0, 22]\nclass = 1", fillcolor="#399de5"] ;
278 -> 286 ;
287 [label="dollar <= 0.048\ngini = 0.058\nsamples = 135\nvalue = [4, 131]\nclass = 1", fillcolor="#3fa0e6"] ;
265 -> 287 ;
288 [label="make <= 0.685\ngini = 0.045\nsamples = 131\nvalue = [3, 128]\nclass = 1", fillcolor="#3e9fe6"] ;
287 -> 288 ;
289 [label="crl.tot <= 142.5\ngini = 0.031\nsamples = 126\nvalue = [2, 124]\nclass = 1", fillcolor="#3c9fe5"] ;
288 -> 289 ;
290 [label="crl.tot <= 140.0\ngini = 0.077\nsamples = 50\nvalue = [2, 48]\nclass = 1", fillcolor="#41a1e6"] ;
289 -> 290 ;
291 [label="bang <= 1.155\ngini = 0.04\nsamples = 49\nvalue = [1, 48]\nclass = 1", fillcolor="#3d9fe6"] ;
290 -> 291 ;
292 [label="gini = 0.0\nsamples = 29\nvalue = [0, 29]\nclass = 1", fillcolor="#399de5"] ;
291 -> 292 ;
293 [label="gini = 0.095\nsamples = 20\nvalue = [1, 19]\nclass = 1", fillcolor="#43a2e6"] ;
291 -> 293 ;
294 [label="gini = 0.0\nsamples = 1\nvalue = [1, 0]\nclass = 1", fillcolor="#e58139"] ;
290 -> 294 ;
295 [label="gini = 0.0\nsamples = 76\nvalue = [0, 76]\nclass = 1", fillcolor="#399de5"] ;
289 -> 295 ;
296 [label="make <= 0.7\ngini = 0.32\nsamples = 5\nvalue = [1, 4]\nclass = 1", fillcolor="#6ab6ec"] ;
288 -> 296 ;
297 [label="gini = 0.0\nsamples = 1\nvalue = [1, 0]\nclass = 1", fillcolor="#e58139"] ;
296 -> 297 ;
298 [label="gini = 0.0\nsamples = 4\nvalue = [0, 4]\nclass = 1", fillcolor="#399de5"] ;
296 -> 298 ;
299 [label="dollar <= 0.053\ngini = 0.375\nsamples = 4\nvalue = [1, 3]\nclass = 1", fillcolor="#7bbeee"] ;
287 -> 299 ;
300 [label="gini = 0.0\nsamples = 1\nvalue = [1, 0]\nclass = 1", fillcolor="#e58139"] ;
299 -> 300 ;
301 [label="gini = 0.0\nsamples = 3\nvalue = [0, 3]\nclass = 1", fillcolor="#399de5"] ;
299 -> 301 ;
302 [label="bang <= 0.004\ngini = 0.2\nsamples = 912\nvalue = [103, 809]\nclass = 1", fillcolor="#52a9e8"] ;
0 -> 302 [labeldistance=2.5, labelangle=-45, headlabel="False"] ;
303 [label="dollar <= 0.146\ngini = 0.481\nsamples = 142\nvalue = [57, 85]\nclass = 1", fillcolor="#bedff6"] ;
302 -> 303 ;
304 [label="n000 <= 0.49\ngini = 0.37\nsamples = 49\nvalue = [37, 12]\nclass = 1", fillcolor="#edaa79"] ;
303 -> 304 ;
305 [label="money <= 0.13\ngini = 0.315\nsamples = 46\nvalue = [37, 9]\nclass = 1", fillcolor="#eba069"] ;
304 -> 305 ;
306 [label="crl.tot <= 107.5\ngini = 0.224\nsamples = 39\nvalue = [34, 5]\nclass = 1", fillcolor="#e99456"] ;
305 -> 306 ;
307 [label="gini = 0.0\nsamples = 13\nvalue = [13, 0]\nclass = 1", fillcolor="#e58139"] ;
306 -> 307 ;
308 [label="crl.tot <= 120.5\ngini = 0.311\nsamples = 26\nvalue = [21, 5]\nclass = 1", fillcolor="#eb9f68"] ;
306 -> 308 ;
309 [label="dollar <= 0.096\ngini = 0.48\nsamples = 5\nvalue = [2, 3]\nclass = 1", fillcolor="#bddef6"] ;
308 -> 309 ;
310 [label="gini = 0.0\nsamples = 2\nvalue = [2, 0]\nclass = 1", fillcolor="#e58139"] ;
309 -> 310 ;
311 [label="gini = 0.0\nsamples = 3\nvalue = [0, 3]\nclass = 1", fillcolor="#399de5"] ;
309 -> 311 ;
312 [label="crl.tot <= 302.5\ngini = 0.172\nsamples = 21\nvalue = [19, 2]\nclass = 1", fillcolor="#e88e4e"] ;
308 -> 312 ;
313 [label="crl.tot <= 274.5\ngini = 0.375\nsamples = 8\nvalue = [6, 2]\nclass = 1", fillcolor="#eeab7b"] ;
312 -> 313 ;
314 [label="gini = 0.0\nsamples = 6\nvalue = [6, 0]\nclass = 1", fillcolor="#e58139"] ;
313 -> 314 ;
315 [label="gini = 0.0\nsamples = 2\nvalue = [0, 2]\nclass = 1", fillcolor="#399de5"] ;
313 -> 315 ;
316 [label="gini = 0.0\nsamples = 13\nvalue = [13, 0]\nclass = 1", fillcolor="#e58139"] ;
312 -> 316 ;
317 [label="dollar <= 0.104\ngini = 0.49\nsamples = 7\nvalue = [3, 4]\nclass = 1", fillcolor="#cee6f8"] ;
305 -> 317 ;
318 [label="gini = 0.0\nsamples = 4\nvalue = [0, 4]\nclass = 1", fillcolor="#399de5"] ;
317 -> 318 ;
319 [label="gini = 0.0\nsamples = 3\nvalue = [3, 0]\nclass = 1", fillcolor="#e58139"] ;
317 -> 319 ;
320 [label="gini = 0.0\nsamples = 3\nvalue = [0, 3]\nclass = 1", fillcolor="#399de5"] ;
304 -> 320 ;
321 [label="money <= 0.035\ngini = 0.338\nsamples = 93\nvalue = [20, 73]\nclass = 1", fillcolor="#6fb8ec"] ;
303 -> 321 ;
322 [label="dollar <= 0.166\ngini = 0.483\nsamples = 49\nvalue = [20, 29]\nclass = 1", fillcolor="#c2e1f7"] ;
321 -> 322 ;
323 [label="gini = 0.0\nsamples = 4\nvalue = [4, 0]\nclass = 1", fillcolor="#e58139"] ;
322 -> 323 ;
324 [label="dollar <= 0.192\ngini = 0.458\nsamples = 45\nvalue = [16, 29]\nclass = 1", fillcolor="#a6d3f3"] ;
322 -> 324 ;
325 [label="gini = 0.0\nsamples = 10\nvalue = [0, 10]\nclass = 1", fillcolor="#399de5"] ;
324 -> 325 ;
326 [label="n000 <= 0.1\ngini = 0.496\nsamples = 35\nvalue = [16, 19]\nclass = 1", fillcolor="#e0f0fb"] ;
324 -> 326 ;
327 [label="dollar <= 0.211\ngini = 0.498\nsamples = 30\nvalue = [16, 14]\nclass = 1", fillcolor="#fcefe6"] ;
326 -> 327 ;
328 [label="gini = 0.0\nsamples = 3\nvalue = [3, 0]\nclass = 1", fillcolor="#e58139"] ;
327 -> 328 ;
329 [label="dollar <= 0.217\ngini = 0.499\nsamples = 27\nvalue = [13, 14]\nclass = 1", fillcolor="#f1f8fd"] ;
327 -> 329 ;
330 [label="gini = 0.0\nsamples = 3\nvalue = [0, 3]\nclass = 1", fillcolor="#399de5"] ;
329 -> 330 ;
331 [label="make <= 0.145\ngini = 0.497\nsamples = 24\nvalue = [13, 11]\nclass = 1", fillcolor="#fbece1"] ;
329 -> 331 ;
332 [label="gini = 0.483\nsamples = 22\nvalue = [13, 9]\nclass = 1", fillcolor="#f7d8c2"] ;
331 -> 332 ;
333 [label="gini = 0.0\nsamples = 2\nvalue = [0, 2]\nclass = 1", fillcolor="#399de5"] ;
331 -> 333 ;
334 [label="gini = 0.0\nsamples = 5\nvalue = [0, 5]\nclass = 1", fillcolor="#399de5"] ;
326 -> 334 ;
335 [label="gini = 0.0\nsamples = 44\nvalue = [0, 44]\nclass = 1", fillcolor="#399de5"] ;
321 -> 335 ;
336 [label="bang <= 0.143\ngini = 0.112\nsamples = 770\nvalue = [46, 724]\nclass = 1", fillcolor="#46a3e7"] ;
302 -> 336 ;
337 [label="n000 <= 0.52\ngini = 0.302\nsamples = 135\nvalue = [25, 110]\nclass = 1", fillcolor="#66b3eb"] ;
336 -> 337 ;
338 [label="money <= 0.025\ngini = 0.401\nsamples = 90\nvalue = [25, 65]\nclass = 1", fillcolor="#85c3ef"] ;
337 -> 338 ;
339 [label="bang <= 0.069\ngini = 0.499\nsamples = 44\nvalue = [21, 23]\nclass = 1", fillcolor="#eef6fd"] ;
338 -> 339 ;
340 [label="bang <= 0.047\ngini = 0.401\nsamples = 18\nvalue = [5, 13]\nclass = 1", fillcolor="#85c3ef"] ;
339 -> 340 ;
341 [label="make <= 0.23\ngini = 0.469\nsamples = 8\nvalue = [5, 3]\nclass = 1", fillcolor="#f5cdb0"] ;
340 -> 341 ;
342 [label="dollar <= 0.701\ngini = 0.278\nsamples = 6\nvalue = [5, 1]\nclass = 1", fillcolor="#ea9a61"] ;
341 -> 342 ;
343 [label="gini = 0.0\nsamples = 5\nvalue = [5, 0]\nclass = 1", fillcolor="#e58139"] ;
342 -> 343 ;
344 [label="gini = 0.0\nsamples = 1\nvalue = [0, 1]\nclass = 1", fillcolor="#399de5"] ;
342 -> 344 ;
345 [label="gini = 0.0\nsamples = 2\nvalue = [0, 2]\nclass = 1", fillcolor="#399de5"] ;
341 -> 345 ;
346 [label="gini = 0.0\nsamples = 10\nvalue = [0, 10]\nclass = 1", fillcolor="#399de5"] ;
340 -> 346 ;
347 [label="dollar <= 0.112\ngini = 0.473\nsamples = 26\nvalue = [16, 10]\nclass = 1", fillcolor="#f5d0b5"] ;
339 -> 347 ;
348 [label="dollar <= 0.058\ngini = 0.165\nsamples = 11\nvalue = [10, 1]\nclass = 1", fillcolor="#e88e4d"] ;
347 -> 348 ;
349 [label="gini = 0.0\nsamples = 1\nvalue = [0, 1]\nclass = 1", fillcolor="#399de5"] ;
348 -> 349 ;
350 [label="gini = 0.0\nsamples = 10\nvalue = [10, 0]\nclass = 1", fillcolor="#e58139"] ;
348 -> 350 ;
351 [label="crl.tot <= 99.5\ngini = 0.48\nsamples = 15\nvalue = [6, 9]\nclass = 1", fillcolor="#bddef6"] ;
347 -> 351 ;
352 [label="gini = 0.0\nsamples = 3\nvalue = [3, 0]\nclass = 1", fillcolor="#e58139"] ;
351 -> 352 ;
353 [label="make <= 0.28\ngini = 0.375\nsamples = 12\nvalue = [3, 9]\nclass = 1", fillcolor="#7bbeee"] ;
351 -> 353 ;
354 [label="n000 <= 0.47\ngini = 0.298\nsamples = 11\nvalue = [2, 9]\nclass = 1", fillcolor="#65b3eb"] ;
353 -> 354 ;
355 [label="gini = 0.18\nsamples = 10\nvalue = [1, 9]\nclass = 1", fillcolor="#4fa8e8"] ;
354 -> 355 ;
356 [label="gini = 0.0\nsamples = 1\nvalue = [1, 0]\nclass = 1", fillcolor="#e58139"] ;
354 -> 356 ;
357 [label="gini = 0.0\nsamples = 1\nvalue = [1, 0]\nclass = 1", fillcolor="#e58139"] ;
353 -> 357 ;
358 [label="crl.tot <= 48.0\ngini = 0.159\nsamples = 46\nvalue = [4, 42]\nclass = 1", fillcolor="#4ca6e7"] ;
338 -> 358 ;
359 [label="gini = 0.0\nsamples = 1\nvalue = [1, 0]\nclass = 1", fillcolor="#e58139"] ;
358 -> 359 ;
360 [label="bang <= 0.066\ngini = 0.124\nsamples = 45\nvalue = [3, 42]\nclass = 1", fillcolor="#47a4e7"] ;
358 -> 360 ;
361 [label="n000 <= 0.05\ngini = 0.305\nsamples = 16\nvalue = [3, 13]\nclass = 1", fillcolor="#67b4eb"] ;
360 -> 361 ;
362 [label="money <= 0.265\ngini = 0.5\nsamples = 6\nvalue = [3, 3]\nclass = 1", fillcolor="#ffffff"] ;
361 -> 362 ;
363 [label="gini = 0.0\nsamples = 2\nvalue = [2, 0]\nclass = 1", fillcolor="#e58139"] ;
362 -> 363 ;
364 [label="dollar <= 0.124\ngini = 0.375\nsamples = 4\nvalue = [1, 3]\nclass = 1", fillcolor="#7bbeee"] ;
362 -> 364 ;
365 [label="gini = 0.0\nsamples = 2\nvalue = [0, 2]\nclass = 1", fillcolor="#399de5"] ;
364 -> 365 ;
366 [label="gini = 0.5\nsamples = 2\nvalue = [1, 1]\nclass = 1", fillcolor="#ffffff"] ;
364 -> 366 ;
367 [label="gini = 0.0\nsamples = 10\nvalue = [0, 10]\nclass = 1", fillcolor="#399de5"] ;
361 -> 367 ;
368 [label="gini = 0.0\nsamples = 29\nvalue = [0, 29]\nclass = 1", fillcolor="#399de5"] ;
360 -> 368 ;
369 [label="gini = 0.0\nsamples = 45\nvalue = [0, 45]\nclass = 1", fillcolor="#399de5"] ;
337 -> 369 ;
370 [label="crl.tot <= 60.5\ngini = 0.064\nsamples = 635\nvalue = [21, 614]\nclass = 1", fillcolor="#40a0e6"] ;
336 -> 370 ;
371 [label="n000 <= 0.24\ngini = 0.326\nsamples = 39\nvalue = [8, 31]\nclass = 1", fillcolor="#6cb6ec"] ;
370 -> 371 ;
372 [label="dollar <= 0.201\ngini = 0.435\nsamples = 25\nvalue = [8, 17]\nclass = 1", fillcolor="#96cbf1"] ;
371 -> 372 ;
373 [label="make <= 0.325\ngini = 0.48\nsamples = 10\nvalue = [6, 4]\nclass = 1", fillcolor="#f6d5bd"] ;
372 -> 373 ;
374 [label="dollar <= 0.09\ngini = 0.375\nsamples = 8\nvalue = [6, 2]\nclass = 1", fillcolor="#eeab7b"] ;
373 -> 374 ;
375 [label="gini = 0.0\nsamples = 1\nvalue = [0, 1]\nclass = 1", fillcolor="#399de5"] ;
374 -> 375 ;
376 [label="bang <= 0.412\ngini = 0.245\nsamples = 7\nvalue = [6, 1]\nclass = 1", fillcolor="#e9965a"] ;
374 -> 376 ;
377 [label="gini = 0.0\nsamples = 5\nvalue = [5, 0]\nclass = 1", fillcolor="#e58139"] ;
376 -> 377 ;
378 [label="bang <= 0.81\ngini = 0.5\nsamples = 2\nvalue = [1, 1]\nclass = 1", fillcolor="#ffffff"] ;
376 -> 378 ;
379 [label="gini = 0.0\nsamples = 1\nvalue = [0, 1]\nclass = 1", fillcolor="#399de5"] ;
378 -> 379 ;
380 [label="gini = 0.0\nsamples = 1\nvalue = [1, 0]\nclass = 1", fillcolor="#e58139"] ;
378 -> 380 ;
381 [label="gini = 0.0\nsamples = 2\nvalue = [0, 2]\nclass = 1", fillcolor="#399de5"] ;
373 -> 381 ;
382 [label="crl.tot <= 29.5\ngini = 0.231\nsamples = 15\nvalue = [2, 13]\nclass = 1", fillcolor="#57ace9"] ;
372 -> 382 ;
383 [label="gini = 0.0\nsamples = 1\nvalue = [1, 0]\nclass = 1", fillcolor="#e58139"] ;
382 -> 383 ;
384 [label="bang <= 0.374\ngini = 0.133\nsamples = 14\nvalue = [1, 13]\nclass = 1", fillcolor="#48a5e7"] ;
382 -> 384 ;
385 [label="bang <= 0.279\ngini = 0.32\nsamples = 5\nvalue = [1, 4]\nclass = 1", fillcolor="#6ab6ec"] ;
384 -> 385 ;
386 [label="gini = 0.0\nsamples = 4\nvalue = [0, 4]\nclass = 1", fillcolor="#399de5"] ;
385 -> 386 ;
387 [label="gini = 0.0\nsamples = 1\nvalue = [1, 0]\nclass = 1", fillcolor="#e58139"] ;
385 -> 387 ;
388 [label="gini = 0.0\nsamples = 9\nvalue = [0, 9]\nclass = 1", fillcolor="#399de5"] ;
384 -> 388 ;
389 [label="gini = 0.0\nsamples = 14\nvalue = [0, 14]\nclass = 1", fillcolor="#399de5"] ;
371 -> 389 ;
390 [label="crl.tot <= 487.5\ngini = 0.043\nsamples = 596\nvalue = [13, 583]\nclass = 1", fillcolor="#3d9fe6"] ;
370 -> 390 ;
391 [label="bang <= 0.41\ngini = 0.079\nsamples = 315\nvalue = [13, 302]\nclass = 1", fillcolor="#42a1e6"] ;
390 -> 391 ;
392 [label="bang <= 0.404\ngini = 0.163\nsamples = 123\nvalue = [11, 112]\nclass = 1", fillcolor="#4ca7e8"] ;
391 -> 392 ;
393 [label="bang <= 0.279\ngini = 0.15\nsamples = 122\nvalue = [10, 112]\nclass = 1", fillcolor="#4ba6e7"] ;
392 -> 393 ;
394 [label="money <= 0.3\ngini = 0.053\nsamples = 74\nvalue = [2, 72]\nclass = 1", fillcolor="#3ea0e6"] ;
393 -> 394 ;
395 [label="gini = 0.0\nsamples = 52\nvalue = [0, 52]\nclass = 1", fillcolor="#399de5"] ;
394 -> 395 ;
396 [label="money <= 0.345\ngini = 0.165\nsamples = 22\nvalue = [2, 20]\nclass = 1", fillcolor="#4da7e8"] ;
394 -> 396 ;
397 [label="gini = 0.0\nsamples = 1\nvalue = [1, 0]\nclass = 1", fillcolor="#e58139"] ;
396 -> 397 ;
398 [label="gini = 0.091\nsamples = 21\nvalue = [1, 20]\nclass = 1", fillcolor="#43a2e6"] ;
396 -> 398 ;
399 [label="bang <= 0.286\ngini = 0.278\nsamples = 48\nvalue = [8, 40]\nclass = 1", fillcolor="#61b1ea"] ;
393 -> 399 ;
400 [label="gini = 0.0\nsamples = 2\nvalue = [2, 0]\nclass = 1", fillcolor="#e58139"] ;
399 -> 400 ;
401 [label="n000 <= 0.955\ngini = 0.227\nsamples = 46\nvalue = [6, 40]\nclass = 1", fillcolor="#57ace9"] ;
399 -> 401 ;
402 [label="gini = 0.169\nsamples = 43\nvalue = [4, 39]\nclass = 1", fillcolor="#4da7e8"] ;
401 -> 402 ;
403 [label="gini = 0.444\nsamples = 3\nvalue = [2, 1]\nclass = 1", fillcolor="#f2c09c"] ;
401 -> 403 ;
404 [label="gini = 0.0\nsamples = 1\nvalue = [1, 0]\nclass = 1", fillcolor="#e58139"] ;
392 -> 404 ;
405 [label="crl.tot <= 481.0\ngini = 0.021\nsamples = 192\nvalue = [2, 190]\nclass = 1", fillcolor="#3b9ee5"] ;
391 -> 405 ;
406 [label="dollar <= 0.159\ngini = 0.01\nsamples = 190\nvalue = [1, 189]\nclass = 1", fillcolor="#3a9ee5"] ;
405 -> 406 ;
407 [label="dollar <= 0.155\ngini = 0.035\nsamples = 56\nvalue = [1, 55]\nclass = 1", fillcolor="#3d9fe5"] ;
406 -> 407 ;
408 [label="gini = 0.0\nsamples = 55\nvalue = [0, 55]\nclass = 1", fillcolor="#399de5"] ;
407 -> 408 ;
409 [label="gini = 0.0\nsamples = 1\nvalue = [1, 0]\nclass = 1", fillcolor="#e58139"] ;
407 -> 409 ;
410 [label="gini = 0.0\nsamples = 134\nvalue = [0, 134]\nclass = 1", fillcolor="#399de5"] ;
406 -> 410 ;
411 [label="n000 <= 0.22\ngini = 0.5\nsamples = 2\nvalue = [1, 1]\nclass = 1", fillcolor="#ffffff"] ;
405 -> 411 ;
412 [label="gini = 0.0\nsamples = 1\nvalue = [1, 0]\nclass = 1", fillcolor="#e58139"] ;
411 -> 412 ;
413 [label="gini = 0.0\nsamples = 1\nvalue = [0, 1]\nclass = 1", fillcolor="#399de5"] ;
411 -> 413 ;
414 [label="gini = 0.0\nsamples = 281\nvalue = [0, 281]\nclass = 1", fillcolor="#399de5"] ;
390 -> 414 ;
}